
\data\
ngram 1=4101
ngram 2=14605
ngram 3=19222
ngram 4=19930
ngram 5=19618

\1-grams:
-2.343698	"	-0.1438925
-3.115607	'	-0.08014245
-4.031382	'll	-0.08014244
-4.031382	'm	-0.08014245
-4.031382	're	-0.08014245
-2.190489	's	-0.1138641
-4.031382	've	-0.08014245
-2.618062	(	-0.1383187
-2.630581	)	-0.1979323
-1.360232	,	-0.4377409
-1.951804	-	-0.1348458
-2.818312	--	-0.1571849
-1.52682	.	-2.1523
-3.542115	...	-0.1224659
-3.862907	/	-0.08014245
-3.012468	6	-0.2480457
-3.156257	6,666	-0.1357804
-4.031382	6,666,666	-0.08014245
-3.823728	6,666.6	-0.1224659
-3.862907	6,666.66	-0.1337242
-2.95521	6.6	-0.3402466
-2.763245	6.66	-0.3780403
-3.862907	6.666	-0.08014245
-3.542115	6.6666	-0.08014245
-2.337186	66	-0.2916194
-3.012468	66,666	-0.1019031
-3.823728	66,666.66	-0.08014245
-3.25113	66.6	-0.2460972
-3.449195	66.66	-0.1756892
-3.862907	66.666	-0.08014245
-2.79917	666	-0.1494081
-3.25113	666,666	-0.1099468
-3.542115	666.6	-0.1694826
-3.449195	666.66	-0.2097314
-4.031382	666.666	-0.08014245
-2.763245	6666	-0.2230135
-4.031382	6666s	-0.08014245
-3.862907	66th	-0.08014244
-3.862907	6:66	-0.08014244
-2.746339	:	-0.2678811
-2.276931	</s>
-99	<s>	-0.4433602
-4.031382	?	-0.08014245
-1.965318	a	-0.1570218
-4.031382	aap	-0.08014245
-4.031382	ababa	-0.08014245
-4.031382	abated	-0.08014245
-4.031382	abdi	-0.08014245
-4.031382	abdullo	-0.08014245
-4.031382	abe	-0.08014245
-4.031382	abide	-0.08014245
-4.031382	abigail	-0.08014245
-4.031382	abilities	-0.08014245
-4.031382	ability	-0.08014245
-4.031382	able	-0.08014245
-3.449195	abn	-0.5831211
-4.031382	abnamro	-0.08014245
-4.031382	abnormalities	-0.08014245
-4.031382	abortions	-0.08014245
-2.982896	about	-0.1901366
-3.862907	abroad	-0.08014245
-4.031382	abruptly	-0.08014244
-3.823728	absolutely	-0.08014245
-3.823728	abu	-0.1531619
-4.031382	abuse	-0.08014244
-3.823728	abuses	-0.08014245
-4.031382	accepted	-0.08014245
-3.660485	access	-0.1897887
-4.031382	accident	-0.08014245
-4.031382	accompanied	-0.08014245
-4.031382	accomplices	-0.08014245
-4.031382	accord	-0.08014245
-4.031382	according	-0.08014245
-4.031382	account	-0.08014244
-3.660485	accountants	-0.08014244
-4.031382	accounted	-0.08014245
-3.823728	accounting	-0.2820911
-3.862907	accounts	-0.08014245
-4.031382	accoutrements	-0.08014245
-4.031382	accusation	-0.08014245
-3.823728	accusations	-0.08014245
-4.031382	accuse	-0.08014245
-3.115607	accused	-0.2957321
-3.862907	accuses	-0.08014245
-4.031382	accusing	-0.08014245
-4.031382	ace	-0.08014245
-3.862907	achieved	-0.08014245
-4.031382	acholi	-0.08014245
-4.031382	acknowledges	-0.08014245
-4.031382	acquired	-0.08014245
-3.862907	acquisition	-0.08014245
-4.031382	acres	-0.08014244
-3.862907	across	-0.1948595
-4.031382	acted	-0.08014245
-3.542115	action	-0.08014244
-4.031382	actions	-0.08014245
-3.862907	activist	-0.08014245
-3.823728	activists	-0.08014245
-3.823728	activities	-0.08014245
-4.031382	activity	-0.08014245
-4.031382	actual	-0.08014244
-4.031382	actually	-0.08014245
-4.031382	adapt	-0.08014245
-3.044202	added	-0.2246262
-3.660485	adding	-0.08014245
-4.031382	addis	-0.08014245
-3.542115	address	-0.08014245
-3.862907	addressed	-0.08014245
-4.031382	addresses	-0.08014245
-4.031382	adel	-0.08014245
-4.031382	adhere	-0.08014245
-4.031382	adherence	-0.08014245
-4.031382	adjustment	-0.08014245
-3.660485	administration	-0.08014245
-4.031382	administrative	-0.08014245
-4.031382	admit	-0.08014245
-4.031382	admitted	-0.08014245
-3.862907	adopt	-0.08014243
-4.031382	adopted	-0.08014245
-3.862907	adopting	-0.08014245
-4.031382	adriaan	-0.08014245
-4.031382	adrift	-0.08014245
-3.823728	advanced	-0.1531619
-4.031382	advancers	-0.08014245
-4.031382	advances	-0.08014245
-4.031382	advantage	-0.08014245
-4.031382	advertisements	-0.08014245
-4.031382	adverts	-0.08014245
-4.031382	adviser	-0.08014245
-4.031382	advisers	-0.08014245
-4.031382	advisor	-0.08014245
-4.031382	advisors	-0.08014244
-4.031382	advisory	-0.08014245
-4.031382	advocacy	-0.08014245
-4.031382	affairs	-0.08014245
-4.031382	afflicting	-0.08014245
-4.031382	afford	-0.08014245
-3.542115	afghan	-0.1224659
-3.542115	afghanistan	-0.08014245
-3.660485	afp	-0.1265849
-3.862907	africa	-0.08014245
-3.542115	african	-0.08014245
-2.529102	after	-0.1900229
-3.862907	afternoon	-0.08014245
-4.031382	afterwards	-0.08014245
-4.031382	ag	-0.08014245
-3.862907	again	-0.08014245
-2.904629	against	-0.2711083
-4.031382	age	-0.08014244
-4.031382	aged	-0.08014245
-4.031382	agencies	-0.08014245
-3.542115	agency	-0.08014245
-4.031382	agent	-0.08014245
-3.862907	agents	-0.08014244
-4.031382	aggravate	-0.08014245
-3.862907	ago	-0.1531619
-4.031382	agree	-0.08014244
-3.449195	agreed	-0.08014245
-3.449195	agreement	-0.1031446
-4.031382	agriculture	-0.08014245
-3.449195	ahead	-0.3982385
-3.660485	aid	-0.1337242
-4.031382	aide	-0.08014245
-3.823728	aim	-0.08014245
-3.372694	aimed	-0.6500679
-4.031382	aims	-0.08014245
-3.660485	air	-0.1948595
-4.031382	aircraft	-0.08014245
-4.031382	airforce	-0.08014245
-4.031382	airline	-0.08014245
-4.031382	airliner	-0.08014245
-4.031382	airlines	-0.08014245
-4.031382	airports	-0.08014245
-3.823728	airstrike	-0.08014244
-3.044202	al	-0.7662153
-4.031382	ala	-0.08014245
-4.031382	alarm	-0.08014245
-4.031382	aleksandra	-0.08014245
-4.031382	alert	-0.08014245
-4.031382	alexander	-0.08014245
-3.862907	ali	-0.08014245
-3.862907	aliens	-0.08014245
-2.859329	all	-0.1572814
-3.823728	allegations	-0.1531619
-4.031382	allege	-0.08014245
-3.823728	alleged	-0.08014244
-3.660485	allegedly	-0.08014245
-3.823728	alleging	-0.08014245
-4.031382	alliances	-0.08014245
-3.862907	allies	-0.08014245
-3.660485	allow	-0.08014245
-3.862907	allowed	-0.1948595
-3.862907	allowing	-0.08014245
-3.862907	allows	-0.08014245
-3.660485	alone	-0.1337242
-3.372694	along	-0.1912315
-4.031382	alongside	-0.08014245
-3.449195	already	-0.08014245
-2.714381	also	-0.09679413
-4.031382	although	-0.08014245
-3.862907	altitude	-0.08014245
-4.031382	alumina	-0.08014244
-4.031382	always	-0.08014245
-4.031382	am	-0.08014245
-4.031382	amateurish	-0.08014245
-4.031382	amazing	-0.08014245
-3.862907	ambitious	-0.1948595
-4.031382	amend	-0.08014245
-3.862907	amendment	-0.08014244
-4.031382	amends	-0.08014245
-3.862907	america	-0.08014245
-3.372694	american	-0.08014245
-4.031382	americanairlines	-0.08014245
-3.862907	americans	-0.08014245
-3.156257	amid	-0.3865426
-4.031382	amir	-0.08014245
-4.031382	amman	-0.08014245
-4.031382	ammunition	-0.08014245
-3.862907	amnesties	-0.08014245
-4.031382	amnesty	-0.08014245
-3.660485	among	-0.08014245
-4.031382	amounted	-0.08014245
-4.031382	amounts	-0.08014244
-4.031382	amro	-0.08014244
-2.539275	an	-0.1281531
-4.031382	anaheim	-0.08014245
-4.031382	analyst	-0.08014245
-3.862907	analysts	-0.08014245
-4.031382	anastassia	-0.08014245
-3.862907	anc	-0.08014245
-1.678508	and	-0.1669904
-3.823728	andrew	-0.08014245
-4.031382	angeles	-0.08014245
-4.031382	angels	-0.08014244
-3.862907	anger	-0.08014245
-4.031382	anglican	-0.08014245
-4.031382	anglo	-0.08014245
-4.031382	anhui	-0.08014245
-4.031382	ankunda	-0.08014245
-4.031382	annexed	-0.08014245
-4.031382	announced	-0.08014245
-4.031382	announcement	-0.08014245
-4.031382	announcing	-0.08014245
-3.862907	annual	-0.08014245
-4.031382	anonymity	-0.08014245
-3.307672	another	-0.08014245
-3.449195	anti	-0.583121
-4.031382	anticipating	-0.08014245
-4.031382	antoine	-0.08014245
-3.044202	any	-0.09478902
-4.031382	anybody	-0.08014245
-3.823728	anyone	-0.08014244
-4.031382	anz	-0.08014245
-3.449195	apartheid	-0.08014245
-3.823728	apec	-0.08014245
-4.031382	apologize	-0.08014245
-4.031382	apology	-0.08014245
-4.031382	apparent	-0.08014245
-4.031382	apparently	-0.08014245
-3.542115	appeal	-0.08014245
-4.031382	appealed	-0.08014245
-3.862907	appear	-0.08014245
-3.862907	appeared	-0.08014245
-4.031382	appoint	-0.08014245
-3.862907	appointed	-0.08014245
-4.031382	appreciate	-0.08014245
-3.862907	approach	-0.08014244
-4.031382	approvals	-0.08014245
-4.031382	april	-0.08014245
-4.031382	aquatic	-0.08014245
-3.823728	arab	-0.1531619
-4.031382	arabia	-0.08014245
-3.823728	arch	-0.1531619
-2.582533	are	-0.09959358
-3.823728	area	-0.1099468
-3.862907	areas	-0.08014245
-4.031382	arena	-0.08014245
-4.031382	argued	-0.08014245
-4.031382	arguing	-0.08014245
-4.031382	arguments	-0.08014245
-3.862907	arm	-0.08014245
-3.542115	armed	-0.08014245
-3.823728	arms	-0.08014245
-3.307672	army	-0.1265849
-3.307672	around	-0.1061075
-3.823728	arrest	-0.1531619
-3.823728	arrested	-0.08014245
-4.031382	arrests	-0.08014245
-3.862907	arriving	-0.1948595
-4.031382	arson	-0.08014245
-3.862907	arsonists	-0.08014245
-4.031382	artificially	-0.08014245
-4.031382	artillery	-0.08014245
-3.862907	arvidsson	-0.08014245
-2.343698	as	-0.2324276
-3.862907	ashby	-0.08014245
-4.031382	ashley	-0.08014245
-3.201108	asia	-0.1612456
-3.862907	asiad	-0.08014245
-3.542115	asian	-0.1151193
-4.031382	ask	-0.08014245
-3.660485	asked	-0.1897887
-4.031382	assembled	-0.08014245
-4.031382	assembling	-0.08014245
-4.031382	assembly	-0.08014245
-4.031382	assert	-0.08014245
-3.862907	assessment	-0.08014245
-4.031382	assets	-0.08014244
-3.862907	assistance	-0.08014245
-4.031382	assists	-0.08014245
-3.862907	associated	-0.1948595
-4.031382	association	-0.08014245
-4.031382	assure	-0.08014245
-4.031382	assured	-0.08014245
-4.031382	assuring	-0.08014245
-4.031382	asx	-0.08014244
-2.288332	at	-0.2815361
-4.031382	athletic	-0.08014245
-4.031382	athletics	-0.08014245
-4.031382	atmosphere	-0.08014245
-3.862907	atom	-0.1948595
-4.031382	attached	-0.08014245
-3.660485	attack	-0.1031446
-3.372694	attacks	-0.1099468
-3.449195	attempt	-0.3242522
-3.823728	attempts	-0.1531619
-4.031382	attend	-0.08014245
-4.031382	attended	-0.08014245
-3.862907	attention	-0.08014245
-4.031382	attitude	-0.08014245
-4.031382	attitudes	-0.08014245
-4.031382	attorney	-0.08014245
-4.031382	attracted	-0.08014245
-4.031382	audience	-0.08014245
-4.031382	auditors	-0.08014245
-3.542115	august	-0.1007888
-4.031382	aussiebum	-0.08014245
-3.449195	australia	-0.1274336
-3.823728	australian	-0.08014245
-4.031382	austrian	-0.08014245
-4.031382	authorised	-0.08014245
-3.862907	authoritarian	-0.08014245
-3.372694	authorities	-0.1099468
-4.031382	authority	-0.08014245
-4.031382	authorization	-0.08014245
-3.542115	auto	-0.08014245
-4.031382	automaker	-0.08014245
-4.031382	automatically	-0.08014245
-3.862907	automobile	-0.08014245
-4.031382	automobiles	-0.08014245
-4.031382	autonomous	-0.08014244
-4.031382	averting	-0.08014245
-4.031382	award	-0.08014245
-4.031382	awarded	-0.08014245
-4.031382	aware	-0.08014244
-3.862907	away	-0.08014244
-3.823728	ayman	-0.2820911
-3.862907	ayoo	-0.08014245
-4.031382	azarenka	-0.08014244
-4.031382	babies	-0.08014245
-3.449195	back	-0.1531619
-3.862907	backed	-0.08014245
-4.031382	backing	-0.08014245
-3.660485	bad	-0.08014244
-4.031382	badly	-0.08014245
-3.862907	baghdad	-0.08014245
-4.031382	bahrain	-0.08014245
-4.031382	baht	-0.08014245
-4.031382	baidoa	-0.08014245
-4.031382	bainimaram	-0.08014245
-3.542115	bainimarama	-0.1453665
-3.542115	bajaur	-0.1419483
-3.660485	bakiyev	-0.08014245
-4.031382	bali	-0.08014245
-3.862907	ball	-0.1948595
-4.031382	bambang	-0.08014245
-3.862907	bammer	-0.08014245
-3.862907	ban	-0.08014245
-4.031382	banco	-0.08014245
-4.031382	bandanas	-0.08014245
-4.031382	bangkok	-0.08014245
-3.044202	bank	-0.1162063
-3.201108	banking	-0.1151193
-4.031382	banks	-0.08014245
-4.031382	banner	-0.08014245
-4.031382	bans	-0.08014245
-4.031382	barbara	-0.08014245
-4.031382	barre	-0.08014245
-3.862907	barred	-0.1948595
-4.031382	barrel	-0.08014245
-3.823728	barrels	-0.08014245
-4.031382	barry	-0.08014245
-4.031382	bartoli	-0.08014244
-3.823728	baseball	-0.2820911
-3.660485	based	-0.1099468
-4.031382	baseless	-0.08014245
-4.031382	baseman	-0.08014245
-4.031382	basic	-0.08014245
-4.031382	basically	-0.08014245
-4.031382	basis	-0.08014244
-4.031382	basketball	-0.08014245
-4.031382	baskets	-0.08014245
-4.031382	batista	-0.08014245
-3.823728	battle	-0.08014245
-3.862907	bda	-0.08014245
-3.044202	be	-0.1016146
-3.862907	bear	-0.08014245
-4.031382	bearish	-0.08014244
-4.031382	beastie	-0.08014245
-3.862907	beat	-0.08014245
-3.862907	beaten	-0.08014245
-4.031382	beating	-0.08014245
-4.031382	beatrice	-0.08014245
-4.031382	became	-0.08014245
-3.201108	because	-0.1474787
-4.031382	beck	-0.08014245
-3.862907	become	-0.08014245
-4.031382	becomes	-0.08014245
-3.307672	been	-0.08548126
-3.307672	before	-0.1031446
-3.542115	began	-0.1693637
-4.031382	begin	-0.08014245
-3.862907	behind	-0.1948595
-3.542115	beijing	-0.1007888
-4.031382	bein	-0.08014245
-3.201108	being	-0.09478902
-3.823728	beirut	-0.1531619
-3.862907	beit	-0.1948595
-4.031382	belarus	-0.08014245
-4.031382	believe	-0.08014245
-3.660485	believed	-0.1337242
-4.031382	believers	-0.08014245
-4.031382	believes	-0.08014245
-4.031382	believing	-0.08014245
-4.031382	bell	-0.08014244
-4.031382	belong	-0.08014245
-3.542115	below	-0.1224659
-4.031382	ben	-0.08014245
-3.862907	benchmark	-0.08014245
-3.862907	benefit	-0.08014245
-4.031382	bengie	-0.08014245
-4.031382	bernama	-0.08014245
-4.031382	bernardino	-0.08014245
-4.031382	bernie	-0.08014245
-4.031382	besides	-0.08014245
-3.449195	best	-0.08014245
-4.031382	bete	-0.08014245
-3.449195	better	-0.1151193
-3.115607	between	-0.2313203
-4.031382	beverly	-0.08014245
-4.031382	bhp	-0.08014245
-4.031382	biao	-0.08014245
-4.031382	bickering	-0.08014245
-3.542115	bid	-0.245071
-4.031382	bidder	-0.08014245
-4.031382	bids	-0.08014245
-3.862907	big	-0.08014245
-4.031382	bigger	-0.08014245
-3.862907	biggest	-0.08014244
-3.862907	bilateral	-0.08014245
-3.862907	bill	-0.08014245
-3.201108	billion	-0.2614498
-4.031382	billions	-0.08014245
-4.031382	billiton	-0.08014245
-3.862907	bin	-0.08014245
-4.031382	bisaraat	-0.08014245
-3.862907	bishkek	-0.08014245
-4.031382	bit	-0.08014245
-3.823728	bitter	-0.08014245
-4.031382	black	-0.08014245
-4.031382	blackouts	-0.08014245
-3.823728	blamed	-0.1531619
-4.031382	blast	-0.08014244
-3.862907	blasted	-0.08014245
-3.862907	blaze	-0.08014245
-4.031382	bleak	-0.08014245
-3.862907	blind	-0.08014245
-4.031382	bling	-0.08014245
-3.823728	blocking	-0.1531619
-4.031382	bloodiest	-0.08014245
-3.660485	bloomberg	-0.08014245
-4.031382	blow	-0.08014244
-4.031382	blown	-0.08014245
-3.862907	blue	-0.08014245
-4.031382	bluescope	-0.08014245
-3.862907	board	-0.08014245
-4.031382	boards	-0.08014245
-4.031382	boats	-0.08014245
-3.823728	bodies	-0.08014245
-3.372694	body	-0.1061075
-4.031382	bok	-0.08014245
-3.823728	bomb	-0.08014244
-3.862907	bombing	-0.08014245
-4.031382	bombings	-0.08014244
-4.031382	bones	-0.08014245
-4.031382	boonyaratglin	-0.08014245
-3.823728	boost	-0.08014245
-4.031382	boosting	-0.08014245
-3.449195	border	-0.1099468
-4.031382	bordering	-0.08014245
-3.862907	borders	-0.08014245
-4.031382	bored	-0.08014245
-4.031382	boring	-0.08014244
-4.031382	born	-0.08014245
-4.031382	boston	-0.08014245
-3.660485	both	-0.08014245
-3.25113	botha	-0.2454578
-4.031382	bottom	-0.08014245
-4.031382	bounce	-0.08014245
-4.031382	bounced	-0.08014245
-4.031382	bowed	-0.08014245
-3.862907	boycotted	-0.08014245
-4.031382	boycotting	-0.08014245
-4.031382	boys	-0.08014245
-3.862907	bpd	-0.08014245
-4.031382	brainstem	-0.08014245
-4.031382	brand	-0.08014245
-4.031382	brass	-0.08014245
-4.031382	brave	-0.08014245
-4.031382	brazil	-0.08014244
-4.031382	brazilian	-0.08014244
-4.031382	breached	-0.08014245
-4.031382	breaching	-0.08014245
-4.031382	break	-0.08014245
-4.031382	breaking	-0.08014245
-3.862907	breakthrough	-0.08014245
-4.031382	breathing	-0.08014245
-4.031382	bredford	-0.08014245
-4.031382	brent	-0.08014245
-4.031382	bridegroom	-0.08014244
-4.031382	brief	-0.08014245
-4.031382	briefing	-0.08014245
-4.031382	briefs	-0.08014245
-4.031382	brigadier	-0.08014245
-3.862907	brilliant	-0.08014245
-3.823728	bring	-0.08014245
-4.031382	brings	-0.08014245
-3.823728	britain	-0.1531619
-3.862907	british	-0.08014245
-4.031382	briton	-0.08014245
-4.031382	broadcasting	-0.08014245
-4.031382	broader	-0.08014245
-4.031382	broke	-0.08014245
-3.862907	broken	-0.08014245
-4.031382	brokered	-0.08014245
-4.031382	brother	-0.08014245
-4.031382	brothers	-0.08014245
-4.031382	brought	-0.08014245
-4.031382	brutal	-0.08014245
-3.542115	bryant	-0.08014245
-4.031382	buffer	-0.08014245
-3.862907	build	-0.08014244
-3.542115	building	-0.1151193
-4.031382	builds	-0.08014245
-4.031382	bul	-0.08014245
-3.660485	bulls	-0.1224659
-4.031382	bureau	-0.08014244
-4.031382	bureaucrat	-0.08014245
-4.031382	bureaucratic	-0.08014245
-4.031382	buried	-0.08014245
-4.031382	burned	-0.08014244
-4.031382	burns	-0.08014245
-4.031382	busan	-0.08014245
-3.372694	bush	-0.1376164
-3.660485	business	-0.08014244
-3.660485	businesses	-0.1337242
-4.031382	bussan	-0.08014245
-2.746339	but	-0.1464755
-4.031382	buttoned	-0.08014245
-4.031382	buy	-0.08014245
-4.031382	buying	-0.08014245
-2.19981	by	-0.2170901
-3.862907	bynum	-0.08014245
-4.031382	ca	-0.08014245
-3.542115	cabinet	-0.08014245
-4.031382	cable	-0.08014245
-4.031382	cac	-0.08014245
-4.031382	cairo	-0.08014245
-4.031382	calculators	-0.08014245
-3.823728	california	-0.08014245
-4.031382	call	-0.08014244
-3.307672	called	-0.1785952
-3.823728	calling	-0.08014245
-4.031382	calls	-0.08014245
-3.044202	came	-0.1658912
-4.031382	camilla	-0.08014245
-3.823728	camp	-0.08014244
-3.542115	campaign	-0.08014245
-4.031382	campaigns	-0.08014245
-3.862907	camps	-0.08014245
-3.25113	can	-0.08014245
-3.862907	canada	-0.08014245
-4.031382	canadian	-0.08014245
-4.031382	candidacies	-0.08014245
-4.031382	candidate	-0.08014245
-4.031382	candidates	-0.08014245
-3.823728	cannot	-0.08014245
-4.031382	cape	-0.08014245
-3.449195	capital	-0.08014245
-4.031382	capped	-0.08014245
-3.823728	capture	-0.08014245
-3.660485	captured	-0.08014245
-3.823728	car	-0.08014245
-4.031382	card	-0.08014245
-4.031382	cardinals	-0.08014245
-3.823728	career	-0.1531619
-4.031382	carefully	-0.08014245
-4.031382	cargo	-0.08014245
-4.031382	caricatures	-0.08014244
-3.823728	carmaker	-0.08014245
-3.542115	carried	-0.5039398
-3.823728	carrier	-0.08014246
-4.031382	carrots	-0.08014245
-3.823728	carry	-0.1337242
-3.823728	carrying	-0.08014244
-3.307672	cars	-0.1031446
-4.031382	cartel	-0.08014244
-3.372694	case	-0.1224659
-3.862907	cases	-0.08014245
-4.031382	casey	-0.08014245
-3.862907	cash	-0.08014245
-4.031382	casio	-0.08014245
-4.031382	catastrophic	-0.08014245
-4.031382	catch	-0.08014245
-4.031382	catcher	-0.08014245
-3.862907	caught	-0.08014245
-4.031382	cause	-0.08014245
-4.031382	caused	-0.08014245
-3.862907	causing	-0.08014245
-4.031382	caution	-0.08014245
-3.862907	cautioned	-0.08014244
-4.031382	cautious	-0.08014245
-4.031382	cc	-0.08014245
-3.660485	ceasefire	-0.08014244
-4.031382	celebration	-0.08014245
-4.031382	cellphone	-0.08014245
-3.542115	center	-0.08014245
-3.862907	centers	-0.08014245
-3.660485	central	-0.1151193
-4.031382	centre	-0.08014244
-4.031382	centres	-0.08014245
-4.031382	cents	-0.08014245
-4.031382	century	-0.08014245
-3.823728	cerda	-0.08014245
-4.031382	ceremony	-0.08014245
-4.031382	certain	-0.08014245
-4.031382	certification	-0.08014245
-4.031382	certified	-0.08014244
-4.031382	cessation	-0.08014244
-4.031382	chae	-0.08014245
-4.031382	chair	-0.08014245
-3.862907	chairman	-0.08014245
-4.031382	chairs	-0.08014244
-3.660485	challenge	-0.08014245
-4.031382	challenges	-0.08014244
-4.031382	champagne	-0.08014244
-3.862907	champion	-0.08014245
-4.031382	championship	-0.08014245
-4.031382	championships	-0.08014245
-3.862907	chance	-0.08014245
-3.542115	change	-0.1224659
-4.031382	changed	-0.08014245
-3.542115	changes	-0.1224659
-4.031382	characterizing	-0.08014245
-3.862907	charge	-0.08014245
-3.862907	charged	-0.08014245
-3.660485	charges	-0.1694827
-3.862907	charles	-0.08014245
-4.031382	charred	-0.08014245
-4.031382	chatter	-0.08014245
-4.031382	chaudhry	-0.08014245
-4.031382	cheaper	-0.08014244
-4.031382	cheated	-0.08014244
-4.031382	check	-0.08014245
-4.031382	cheeky	-0.08014245
-4.031382	chemicals	-0.08014245
-3.372694	chen	-0.1548241
-3.449195	chery	-0.1061075
-4.031382	chi	-0.08014245
-3.823728	chicago	-0.08014244
-3.25113	chief	-0.0959364
-3.823728	chiefs	-0.08014246
-3.660485	child	-0.08014245
-3.660485	children	-0.08014245
-4.031382	chime	-0.08014245
-3.201108	china	-0.1602632
-3.449195	chinese	-0.08014245
-4.031382	chips	-0.08014245
-4.031382	choice	-0.08014245
-4.031382	chorus	-0.08014245
-4.031382	chose	-0.08014245
-3.862907	chris	-0.08014245
-4.031382	christensen	-0.08014244
-4.031382	christian	-0.08014245
-4.031382	christopher	-0.08014245
-4.031382	chulanont	-0.08014245
-3.862907	chun	-0.08014245
-3.862907	churches	-0.08014245
-4.031382	churchill	-0.08014245
-4.031382	cia	-0.08014245
-4.031382	cigars	-0.08014245
-4.031382	circles	-0.08014245
-4.031382	cities	-0.08014245
-4.031382	citing	-0.08014245
-4.031382	citizens	-0.08014245
-3.307672	city	-0.0959364
-3.862907	civil	-0.08014244
-4.031382	civilian	-0.08014245
-3.660485	civilians	-0.08014245
-4.031382	claim	-0.08014245
-3.660485	claimed	-0.1337242
-4.031382	claiming	-0.08014245
-3.372694	claims	-0.1764968
-4.031382	clampdown	-0.08014245
-4.031382	clark	-0.08014245
-4.031382	clash	-0.08014245
-4.031382	clashed	-0.08014245
-4.031382	clashes	-0.08014245
-3.862907	class	-0.08014244
-4.031382	clause	-0.08014245
-4.031382	clean	-0.08014245
-3.823728	clear	-0.1531619
-4.031382	clearer	-0.08014245
-3.823728	clearly	-0.08014245
-4.031382	clients	-0.08014245
-4.031382	climate	-0.08014245
-3.823728	climbed	-0.1531619
-4.031382	climbs	-0.08014245
-3.660485	clinton	-0.1337242
-4.031382	clock	-0.08014245
-3.115607	close	-0.2072171
-3.542115	closed	-0.1419483
-3.862907	closely	-0.08014245
-3.862907	closer	-0.08014245
-4.031382	closes	-0.08014245
-4.031382	closest	-0.08014245
-3.862907	clothes	-0.08014245
-4.031382	clubs	-0.08014245
-4.031382	cnbc	-0.08014245
-3.862907	co	-0.1948595
-4.031382	co.	-0.08014245
-3.823728	coach	-0.08014245
-4.031382	coaches	-0.08014245
-4.031382	coalition	-0.08014245
-3.660485	coast	-0.1151193
-3.862907	coastal	-0.1948595
-3.862907	cold	-0.1948595
-4.031382	collaborative	-0.08014245
-4.031382	collapse	-0.08014245
-4.031382	colleagues	-0.08014245
-4.031382	collected	-0.08014245
-4.031382	college	-0.08014245
-4.031382	colombo	-0.08014245
-4.031382	combatants	-0.08014245
-4.031382	combined	-0.08014245
-3.660485	come	-0.08014245
-4.031382	comeback	-0.08014245
-4.031382	comes	-0.08014245
-4.031382	comfortable	-0.08014245
-3.862907	coming	-0.08014245
-4.031382	command	-0.08014245
-4.031382	commanded	-0.08014245
-3.542115	commander	-0.1531619
-4.031382	commands	-0.08014245
-4.031382	comment	-0.08014245
-4.031382	commentary	-0.08014245
-3.660485	comments	-0.08014245
-3.823728	commercial	-0.08014245
-3.862907	commission	-0.08014245
-3.862907	commissioner	-0.08014245
-3.862907	commitment	-0.08014245
-3.823728	committed	-0.08014245
-4.031382	committee	-0.08014245
-3.862907	commodities	-0.08014244
-4.031382	commonwealth	-0.08014245
-4.031382	commsec	-0.08014244
-3.823728	communist	-0.1337242
-3.862907	community	-0.08014245
-3.862907	compact	-0.1948595
-4.031382	companhia	-0.08014245
-3.823728	companies	-0.08014245
-3.449195	company	-0.08014245
-4.031382	compared	-0.08014245
-4.031382	compensates	-0.08014245
-4.031382	compete	-0.08014244
-4.031382	competing	-0.08014245
-3.823728	competition	-0.1337242
-4.031382	complained	-0.08014245
-4.031382	complaint	-0.08014245
-4.031382	complete	-0.08014245
-3.823728	completely	-0.1531619
-4.031382	completing	-0.08014245
-3.823728	compound	-0.08014245
-4.031382	comprehensive	-0.08014244
-4.031382	comprises	-0.08014245
-3.862907	compromise	-0.08014245
-3.862907	computer	-0.08014245
-4.031382	concealling	-0.08014245
-4.031382	concentrated	-0.08014245
-3.862907	concern	-0.1531619
-3.862907	concerned	-0.08014245
-3.823728	concerns	-0.08014245
-4.031382	conciliatory	-0.08014245
-4.031382	conclude	-0.08014245
-4.031382	conclusion	-0.08014245
-4.031382	condemned	-0.08014245
-4.031382	condition	-0.08014245
-3.823728	conditions	-0.08014245
-4.031382	condoleezza	-0.08014245
-3.862907	condolences	-0.08014245
-3.823728	conducted	-0.08014245
-3.660485	conference	-0.1337242
-4.031382	confidants	-0.08014245
-3.862907	confidence	-0.08014245
-3.823728	confident	-0.1531619
-4.031382	confirm	-0.08014245
-4.031382	confirmation	-0.08014244
-3.660485	confirmed	-0.1224659
-3.449195	conflict	-0.1756892
-4.031382	congestion	-0.08014245
-3.660485	congress	-0.08014245
-4.031382	congressional	-0.08014245
-4.031382	connected	-0.08014245
-4.031382	connection	-0.08014245
-3.862907	consecutive	-0.08014245
-3.823728	consequences	-0.1531619
-4.031382	conservative	-0.08014244
-3.823728	consider	-0.08014245
-4.031382	considerably	-0.08014245
-4.031382	consideration	-0.08014245
-3.823728	considered	-0.08014245
-4.031382	considering	-0.08014245
-4.031382	consitution	-0.08014244
-4.031382	conspiracies	-0.08014245
-3.862907	conspiracy	-0.1948595
-3.862907	constant	-0.08014245
-3.660485	constitution	-0.08014245
-3.862907	constitutional	-0.08014245
-4.031382	constitutionality	-0.08014245
-3.823728	construction	-0.08014244
-4.031382	consultant	-0.08014245
-3.823728	consumer	-0.2820911
-3.862907	contact	-0.08014245
-4.031382	contacts	-0.08014245
-4.031382	contempt	-0.08014245
-4.031382	contents	-0.08014245
-4.031382	contest	-0.08014245
-4.031382	contested	-0.08014245
-4.031382	context	-0.08014244
-3.372694	continue	-0.3003759
-3.823728	continued	-0.1531619
-4.031382	continues	-0.08014245
-4.031382	continuing	-0.08014245
-4.031382	contract	-0.08014245
-4.031382	contracting	-0.08014245
-3.862907	contracts	-0.08014245
-4.031382	contribution	-0.08014245
-3.156257	control	-0.2340053
-4.031382	controlled	-0.08014245
-4.031382	controlling	-0.08014245
-3.660485	controversial	-0.1224659
-4.031382	convey	-0.08014245
-3.862907	convicted	-0.1948595
-4.031382	convicting	-0.08014245
-4.031382	convoy	-0.08014244
-4.031382	cooperate	-0.08014245
-4.031382	cooperated	-0.08014245
-4.031382	cooperation	-0.08014244
-4.031382	coordination	-0.08014244
-4.031382	cop	-0.08014245
-4.031382	cope	-0.08014245
-4.031382	copied	-0.08014245
-3.862907	cordon	-0.08014245
-4.031382	cordoned	-0.08014245
-4.031382	corp	-0.08014245
-4.031382	corporate	-0.08014245
-4.031382	corporation	-0.08014245
-4.031382	correspondents	-0.08014245
-3.449195	corruption	-0.1099468
-3.823728	corus	-0.08014245
-3.862907	cost	-0.08014245
-3.823728	costs	-0.08014245
-4.031382	cotton	-0.08014245
-2.929184	could	-0.2348969
-3.542115	council	-0.1061075
-4.031382	count	-0.08014245
-4.031382	counter	-0.08014245
-4.031382	counterfeiting	-0.08014245
-4.031382	counterpart	-0.08014245
-3.449195	countries	-0.08014244
-3.372694	country	-0.1256529
-4.031382	countryside	-0.08014245
-3.862907	county	-0.08014245
-3.542115	coup	-0.08014245
-4.031382	couples	-0.08014245
-4.031382	coups	-0.08014245
-3.862907	couriers	-0.1948595
-3.823728	course	-0.08014245
-3.307672	court	-0.1265849
-4.031382	courts	-0.08014245
-4.031382	craig	-0.08014245
-3.862907	crazy	-0.08014245
-3.862907	create	-0.08014245
-3.862907	creating	-0.08014244
-3.862907	creation	-0.1948595
-3.862907	credible	-0.08014245
-3.660485	credit	-0.08014245
-4.031382	credited	-0.08014245
-3.862907	crew	-0.08014245
-3.862907	criminal	-0.08014245
-3.307672	crisis	-0.1548241
-4.031382	criticised	-0.08014244
-3.823728	criticism	-0.08014245
-3.862907	criticize	-0.08014245
-4.031382	criticized	-0.08014245
-4.031382	critics	-0.08014245
-4.031382	cross	-0.08014245
-4.031382	crowded	-0.08014245
-4.031382	crucial	-0.08014245
-3.542115	crude	-0.1224659
-4.031382	cruise	-0.08014245
-4.031382	crumbling	-0.08014245
-4.031382	crunchers	-0.08014245
-4.031382	crush	-0.08014245
-3.862907	cuban	-0.08014245
-4.031382	cubs	-0.08014245
-4.031382	cult	-0.08014244
-4.031382	curb	-0.08014245
-4.031382	curbs	-0.08014245
-3.862907	currency	-0.08014245
-3.862907	current	-0.08014245
-3.862907	currently	-0.08014245
-4.031382	curtain	-0.08014245
-4.031382	customer	-0.08014245
-4.031382	customs	-0.08014245
-3.542115	cut	-0.08014245
-3.862907	cuts	-0.08014245
-3.862907	cutting	-0.1948595
-4.031382	cy	-0.08014245
-4.031382	cycle	-0.08014245
-3.862907	da	-0.08014245
-3.542115	daily	-0.08014245
-4.031382	daimlerchrysler	-0.08014245
-4.031382	dallas	-0.08014245
-4.031382	damage	-0.08014245
-4.031382	damaging	-0.08014245
-4.031382	dampened	-0.08014245
-4.031382	dance	-0.08014245
-4.031382	dangerous	-0.08014245
-4.031382	dangerously	-0.08014245
-4.031382	danish	-0.08014245
-3.449195	data	-0.1061075
-4.031382	date	-0.08014245
-4.031382	david	-0.08014245
-4.031382	dawei	-0.08014245
-4.031382	dax	-0.08014245
-3.449195	day	-0.1031446
-4.031382	dayan	-0.08014245
-3.660485	days	-0.1224659
-3.823728	de	-0.2820911
-3.862907	dead	-0.08014244
-4.031382	deadline	-0.08014245
-3.862907	deadly	-0.08014245
-3.25113	deal	-0.1224659
-4.031382	dealers	-0.08014245
-3.862907	dealing	-0.1948595
-3.823728	deals	-0.08014245
-4.031382	dealt	-0.08014245
-4.031382	dear	-0.08014245
-3.542115	death	-0.08014245
-3.823728	deaths	-0.08014245
-4.031382	debts	-0.08014245
-4.031382	debunk	-0.08014245
-4.031382	decade	-0.08014245
-3.862907	decades	-0.08014245
-3.542115	december	-0.1151193
-4.031382	decide	-0.08014245
-3.542115	decided	-0.1693637
-4.031382	deciding	-0.08014245
-3.25113	decision	-0.1643735
-3.823728	decisions	-0.08014245
-4.031382	decisive	-0.08014245
-3.823728	declare	-0.08014245
-4.031382	declaring	-0.08014245
-4.031382	declined	-0.08014245
-4.031382	decliners	-0.08014244
-4.031382	decorative	-0.08014245
-4.031382	decree	-0.08014245
-4.031382	deep	-0.08014245
-4.031382	deepening	-0.08014244
-3.862907	defeated	-0.08014245
-3.449195	defence	-0.1531619
-4.031382	defend	-0.08014245
-3.823728	defendants	-0.08014245
-4.031382	defended	-0.08014245
-4.031382	defending	-0.08014245
-3.542115	defense	-0.1151193
-4.031382	defensive	-0.08014245
-4.031382	defiant	-0.08014245
-3.862907	deficit	-0.08014245
-4.031382	defied	-0.08014245
-4.031382	definitely	-0.08014245
-4.031382	degree	-0.08014245
-3.862907	delayed	-0.08014245
-4.031382	delegate	-0.08014245
-4.031382	delegation	-0.08014245
-4.031382	deliver	-0.08014245
-4.031382	delivered	-0.08014245
-4.031382	delivery	-0.08014245
-4.031382	delta	-0.08014245
-3.449195	demand	-0.26897
-3.862907	demanded	-0.08014245
-4.031382	demanding	-0.08014245
-3.823728	demands	-0.08014245
-4.031382	democracy	-0.08014245
-4.031382	democrat	-0.08014244
-3.823728	democratic	-0.08014244
-3.862907	democratically	-0.1948595
-3.823728	democrats	-0.2820911
-4.031382	deng	-0.08014245
-3.862907	denied	-0.08014245
-3.823728	denies	-0.08014245
-3.823728	denmark	-0.1531619
-3.862907	denounced	-0.1948595
-3.660485	department	-0.08014245
-4.031382	departure	-0.08014245
-4.031382	depends	-0.08014245
-3.862907	deployed	-0.08014245
-4.031382	deposed	-0.08014245
-4.031382	depress	-0.08014245
-3.372694	deputy	-0.1555384
-3.862907	described	-0.1948595
-4.031382	describes	-0.08014245
-4.031382	desert	-0.08014245
-4.031382	deserved	-0.08014244
-3.862907	design	-0.08014245
-3.862907	designed	-0.1948595
-4.031382	designer	-0.08014244
-4.031382	desperate	-0.08014245
-3.201108	despite	-0.1389397
-4.031382	despotic	-0.08014245
-3.862907	destroyed	-0.08014245
-4.031382	destroyer	-0.08014245
-4.031382	details	-0.08014245
-4.031382	detained	-0.08014245
-4.031382	detaining	-0.08014245
-4.031382	detection	-0.08014245
-4.031382	detention	-0.08014244
-4.031382	determination	-0.08014245
-3.862907	determine	-0.08014245
-3.862907	detroit	-0.08014245
-4.031382	devastated	-0.08014245
-4.031382	developed	-0.08014245
-4.031382	developing	-0.08014244
-3.660485	development	-0.1337242
-4.031382	dhabi	-0.08014245
-4.031382	dhaen	-0.08014245
-3.862907	dhow	-0.1531619
-3.660485	dialogue	-0.4070298
-3.449195	did	-0.26897
-3.660485	died	-0.08014245
-3.862907	dies	-0.08014245
-4.031382	diesel	-0.08014245
-3.862907	differences	-0.08014245
-4.031382	difficult	-0.08014245
-4.031382	difficulties	-0.08014245
-4.031382	digesting	-0.08014245
-4.031382	digging	-0.08014245
-4.031382	digital	-0.08014245
-3.862907	diplomat	-0.08014245
-3.542115	diplomatic	-0.08014245
-3.862907	diplomats	-0.08014245
-3.823728	dipped	-0.1531619
-3.862907	dire	-0.08014245
-4.031382	direct	-0.08014245
-4.031382	direction	-0.08014245
-4.031382	directions	-0.08014245
-3.862907	directive	-0.08014245
-4.031382	directly	-0.08014245
-3.542115	director	-0.1224659
-4.031382	directors	-0.08014244
-4.031382	disappeared	-0.08014245
-3.823728	disarmament	-0.2820911
-4.031382	disciplined	-0.08014245
-4.031382	discounts	-0.08014244
-4.031382	discover	-0.08014245
-4.031382	discovered	-0.08014245
-4.031382	discrimination	-0.08014245
-4.031382	discuss	-0.08014245
-4.031382	discussed	-0.08014245
-4.031382	discussion	-0.08014245
-3.862907	discussions	-0.1948595
-4.031382	disease	-0.08014244
-4.031382	dismantled	-0.08014245
-4.031382	displaced	-0.08014245
-4.031382	displacement	-0.08014244
-4.031382	displacements	-0.08014244
-3.862907	dispute	-0.08014245
-4.031382	dissolve	-0.08014245
-4.031382	dissolved	-0.08014245
-4.031382	distillate	-0.08014245
-4.031382	distortion	-0.08014244
-4.031382	distributed	-0.08014245
-3.862907	distribution	-0.1948595
-3.660485	district	-0.1337242
-4.031382	disturb	-0.08014245
-4.031382	divided	-0.08014245
-3.823728	division	-0.08014244
-4.031382	divisions	-0.08014245
-3.823728	diyarbakir	-0.08014245
-3.372694	do	-0.2268417
-3.862907	dodgers	-0.08014245
-3.862907	doe	-0.08014244
-3.449195	does	-0.3242522
-4.031382	doggedly	-0.08014244
-4.031382	doha	-0.08014245
-4.031382	doing	-0.08014245
-3.449195	dollar	-0.08014245
-3.115607	dollars	-0.1973747
-4.031382	dolphin	-0.08014245
-3.823728	domestic	-0.08014245
-4.031382	dominated	-0.08014245
-4.031382	dominates	-0.08014245
-3.823728	dominguez	-0.08014245
-4.031382	done	-0.08014245
-3.862907	dong	-0.08014244
-4.031382	door	-0.08014245
-4.031382	double	-0.08014245
-4.031382	doubts	-0.08014245
-3.078439	down	-0.1321447
-3.862907	downer	-0.08014245
-4.031382	dprk	-0.08014244
-4.031382	dramatically	-0.08014245
-3.862907	draw	-0.08014245
-4.031382	drawing	-0.08014245
-3.862907	drifting	-0.08014245
-4.031382	drinking	-0.08014245
-4.031382	drive	-0.08014245
-3.862907	driven	-0.1948595
-4.031382	drives	-0.08014245
-4.031382	drones	-0.08014245
-4.031382	drop	-0.08014245
-3.660485	dropped	-0.08014245
-4.031382	drove	-0.08014245
-3.542115	due	-0.3190573
-4.031382	dug	-0.08014245
-4.031382	duhon	-0.08014245
-4.031382	dumped	-0.08014245
-3.862907	dumping	-0.08014245
-3.660485	dung	-0.2221473
-4.031382	dunks	-0.08014245
-3.115607	during	-0.3635744
-4.031382	dushanbe	-0.08014245
-3.660485	dutch	-0.1337242
-4.031382	duties	-0.08014245
-4.031382	dwi	-0.08014245
-4.031382	dwyane	-0.08014245
-4.031382	dynamic	-0.08014245
-4.031382	e	-0.08014245
-3.542115	each	-0.08014245
-3.542115	earlier	-0.08014245
-3.25113	early	-0.1031446
-4.031382	earned	-0.08014245
-4.031382	earnest	-0.08014245
-3.823728	earnings	-0.08014245
-4.031382	earstwhile	-0.08014245
-4.031382	earthquake	-0.08014245
-3.823728	ease	-0.1337242
-3.660485	eased	-0.08014245
-3.862907	easier	-0.08014245
-4.031382	easing	-0.08014245
-3.449195	east	-0.1225193
-3.823728	eastern	-0.08014245
-3.862907	easy	-0.08014245
-4.031382	ebbed	-0.08014245
-4.031382	echoed	-0.08014245
-3.201108	economic	-0.08014245
-4.031382	economist	-0.08014245
-3.823728	economy	-0.08014245
-4.031382	edge	-0.08014245
-4.031382	edi	-0.08014245
-4.031382	editorial	-0.08014245
-4.031382	educated	-0.08014245
-4.031382	educating	-0.08014245
-3.862907	education	-0.08014245
-4.031382	eelam	-0.08014244
-4.031382	effect	-0.08014245
-4.031382	effective	-0.08014245
-3.862907	effectively	-0.08014245
-3.862907	efficient	-0.08014245
-4.031382	effort	-0.08014245
-3.862907	efforts	-0.08014245
-4.031382	efkan	-0.08014245
-3.449195	egypt	-0.1555384
-3.823728	egyptian	-0.08014245
-3.862907	egyptians	-0.08014245
-4.031382	ehud	-0.08014245
-3.823728	eight	-0.08014245
-4.031382	eighth	-0.08014245
-3.660485	either	-0.08014245
-4.031382	eke	-0.08014245
-4.031382	elaborating	-0.08014245
-4.031382	elect	-0.08014245
-3.823728	elected	-0.08014245
-3.862907	election	-0.08014245
-3.449195	elections	-0.2364294
-4.031382	electrical	-0.08014245
-4.031382	electricity	-0.08014244
-4.031382	electronics	-0.08014245
-4.031382	elegant	-0.08014245
-4.031382	eliminating	-0.08014245
-3.862907	elite	-0.08014245
-4.031382	elshinta	-0.08014244
-4.031382	elusive	-0.08014244
-4.031382	embarrassed	-0.08014245
-3.862907	embarrassing	-0.08014245
-3.862907	emergency	-0.1948595
-4.031382	emerging	-0.08014245
-4.031382	emigration	-0.08014245
-4.031382	eminence	-0.08014245
-4.031382	emirates	-0.08014245
-4.031382	emissions	-0.08014245
-4.031382	emomali	-0.08014244
-4.031382	emori	-0.08014245
-4.031382	emphasis	-0.08014245
-4.031382	emphatically	-0.08014245
-4.031382	employment	-0.08014245
-4.031382	empty	-0.08014245
-4.031382	encounters	-0.08014245
-4.031382	encourage	-0.08014245
-4.031382	encouraging	-0.08014245
-3.542115	end	-0.1031446
-3.660485	ended	-0.08014245
-3.862907	ending	-0.08014244
-4.031382	endorsed	-0.08014245
-4.031382	enemies	-0.08014245
-3.862907	enemy	-0.08014245
-4.031382	energetic	-0.08014245
-4.031382	energized	-0.08014245
-3.372694	energy	-0.08014245
-4.031382	enforcement	-0.08014245
-4.031382	engage	-0.08014245
-3.862907	engagement	-0.1531619
-3.862907	engine	-0.08014245
-4.031382	engineering	-0.08014245
-3.862907	engines	-0.08014245
-4.031382	english	-0.08014245
-4.031382	engulfing	-0.08014245
-3.862907	enhance	-0.08014245
-4.031382	enhancement	-0.08014245
-4.031382	enlarge	-0.08014245
-4.031382	enormous	-0.08014245
-4.031382	enormously	-0.08014245
-3.823728	enough	-0.08014245
-3.862907	ensure	-0.08014244
-4.031382	enter	-0.08014245
-4.031382	entering	-0.08014245
-4.031382	enthusiasm	-0.08014245
-4.031382	entitled	-0.08014245
-4.031382	entrusted	-0.08014245
-3.823728	environment	-0.08014245
-3.862907	environmental	-0.08014245
-4.031382	environmentalists	-0.08014245
-3.823728	envoy	-0.08014245
-4.031382	envoys	-0.08014245
-4.031382	ephraim	-0.08014245
-4.031382	equipped	-0.08014245
-4.031382	equities	-0.08014245
-4.031382	equity	-0.08014245
-4.031382	equivalent	-0.08014244
-3.823728	era	-0.08014245
-4.031382	erased	-0.08014245
-4.031382	eric	-0.08014245
-4.031382	eritrea	-0.08014245
-4.031382	erratic	-0.08014245
-3.823728	erupted	-0.08014245
-4.031382	escaped	-0.08014245
-4.031382	eshimkanov	-0.08014245
-3.862907	especially	-0.08014245
-4.031382	establish	-0.08014245
-4.031382	established	-0.08014245
-4.031382	establishing	-0.08014245
-4.031382	estate	-0.08014245
-4.031382	estimate	-0.08014245
-4.031382	estimated	-0.08014245
-3.823728	ethiopia	-0.08014245
-3.660485	ethiopian	-0.4070298
-3.449195	ethnic	-0.08014245
-4.031382	eu	-0.08014244
-3.823728	euro	-0.08014245
-3.862907	europe	-0.08014245
-3.862907	european	-0.08014245
-4.031382	euros	-0.08014245
-3.862907	evans	-0.08014245
-4.031382	evasion	-0.08014245
-3.156257	even	-0.09887078
-4.031382	evening	-0.08014245
-3.862907	event	-0.08014245
-4.031382	events	-0.08014245
-3.823728	ever	-0.08014245
-3.862907	every	-0.08014245
-4.031382	everything	-0.08014245
-3.862907	evidence	-0.08014245
-3.862907	evil	-0.08014245
-4.031382	evoked	-0.08014245
-3.823728	exactly	-0.08014245
-4.031382	exaggerated	-0.08014245
-4.031382	excessive	-0.08014245
-3.449195	exchange	-0.08014245
-4.031382	exchanged	-0.08014245
-4.031382	exchanges	-0.08014245
-4.031382	exchanging	-0.08014245
-4.031382	exclude	-0.08014245
-4.031382	excluded	-0.08014245
-4.031382	execute	-0.08014245
-4.031382	executed	-0.08014245
-3.862907	executives	-0.08014245
-4.031382	exemption	-0.08014244
-4.031382	exercise	-0.08014245
-4.031382	exile	-0.08014245
-4.031382	existed	-0.08014245
-4.031382	existence	-0.08014244
-4.031382	existing	-0.08014245
-4.031382	exiting	-0.08014244
-4.031382	expand	-0.08014245
-4.031382	expanding	-0.08014244
-3.823728	expansion	-0.1531619
-4.031382	expect	-0.08014245
-3.542115	expectations	-0.08014244
-3.115607	expected	-0.1643735
-4.031382	expecting	-0.08014245
-3.862907	expects	-0.08014245
-3.862907	experience	-0.08014245
-4.031382	experienced	-0.08014245
-4.031382	expert	-0.08014245
-4.031382	expired	-0.08014245
-3.862907	exploded	-0.08014245
-4.031382	exploit	-0.08014245
-4.031382	exploits	-0.08014245
-4.031382	explosive	-0.08014245
-3.862907	export	-0.08014245
-4.031382	exported	-0.08014245
-4.031382	exporting	-0.08014245
-3.823728	exports	-0.1337242
-3.862907	exposing	-0.08014245
-4.031382	express	-0.08014245
-3.862907	expressed	-0.08014245
-4.031382	expressions	-0.08014244
-4.031382	extended	-0.08014245
-4.031382	extends	-0.08014245
-4.031382	extensive	-0.08014244
-4.031382	extent	-0.08014244
-4.031382	extinguished	-0.08014245
-4.031382	extolling	-0.08014245
-4.031382	extradition	-0.08014245
-4.031382	extremely	-0.08014245
-4.031382	extremist	-0.08014245
-4.031382	extremists	-0.08014245
-3.823728	eye	-0.08014245
-3.862907	eyesores	-0.08014245
-4.031382	f.w.	-0.08014245
-3.25113	face	-0.1151193
-4.031382	faced	-0.08014245
-4.031382	facet	-0.08014244
-4.031382	facilitators	-0.08014245
-3.862907	fact	-0.08014245
-4.031382	factions	-0.08014245
-4.031382	factory	-0.08014245
-3.862907	facts	-0.08014245
-3.542115	failed	-0.08014245
-3.823728	failing	-0.2820911
-4.031382	fails	-0.08014245
-3.862907	failure	-0.08014245
-3.862907	fair	-0.08014245
-4.031382	fairness	-0.08014245
-4.031382	faithfully	-0.08014245
-4.031382	fake	-0.08014244
-4.031382	false	-0.08014245
-4.031382	famer	-0.08014245
-4.031382	families	-0.08014245
-3.660485	family	-0.1224659
-4.031382	fanned	-0.08014245
-3.862907	fans	-0.08014245
-3.823728	far	-0.08014245
-4.031382	fare	-0.08014245
-4.031382	fast	-0.08014245
-4.031382	faster	-0.08014245
-4.031382	faux	-0.08014245
-4.031382	favour	-0.08014245
-3.862907	fear	-0.08014245
-4.031382	fearing	-0.08014245
-3.823728	fears	-0.1531619
-3.862907	features	-0.08014245
-4.031382	february	-0.08014244
-3.862907	fed	-0.08014245
-3.660485	federal	-0.1224659
-3.862907	feeling	-0.08014245
-4.031382	felix	-0.08014245
-3.449195	fell	-0.1531619
-4.031382	felt	-0.08014244
-4.031382	female	-0.08014245
-4.031382	fertilizer	-0.08014245
-3.823728	few	-0.08014244
-3.862907	fewer	-0.08014245
-3.542115	fiat	-0.08014245
-3.862907	field	-0.1531619
-4.031382	fields	-0.08014245
-4.031382	fierce	-0.08014245
-3.660485	fifth	-0.1224659
-3.862907	fight	-0.08014245
-3.823728	fighting	-0.08014245
-4.031382	figure	-0.08014244
-3.823728	figures	-0.08014245
-3.542115	fiji	-0.1833739
-3.862907	fijian	-0.08014245
-4.031382	fijians	-0.08014244
-4.031382	file	-0.08014245
-3.862907	filed	-0.08014245
-3.823728	final	-0.08014245
-4.031382	finals	-0.08014245
-3.862907	finance	-0.08014244
-4.031382	finances	-0.08014245
-3.078439	financial	-0.166169
-4.031382	financing	-0.08014245
-4.031382	find	-0.08014245
-4.031382	finding	-0.08014245
-3.862907	fines	-0.1948595
-3.862907	finish	-0.08014244
-3.449195	fire	-0.1151193
-3.823728	fired	-0.08014245
-3.660485	firefighter	-0.08014245
-4.031382	firefighters	-0.08014245
-3.823728	firing	-0.08014245
-3.862907	firm	-0.08014246
-4.031382	firmed	-0.08014245
-4.031382	firms	-0.08014245
-3.012468	first	-0.1550993
-4.031382	fishermen	-0.08014245
-4.031382	fitted	-0.08014245
-3.372694	five	-0.08014246
-4.031382	flag	-0.08014245
-4.031382	flagged	-0.08014245
-4.031382	flagging	-0.08014245
-4.031382	flames	-0.08014245
-4.031382	flash	-0.08014244
-3.862907	flat	-0.08014245
-4.031382	fled	-0.08014245
-4.031382	fleet	-0.08014245
-4.031382	flight	-0.08014245
-3.660485	flights	-0.1337242
-3.823728	floods	-0.08014245
-4.031382	floor	-0.08014245
-3.862907	florida	-0.08014245
-3.823728	focus	-0.1531619
-3.862907	focuses	-0.08014244
-4.031382	foe	-0.08014245
-4.031382	fold	-0.08014245
-4.031382	follow	-0.08014245
-3.449195	followed	-0.08014245
-3.449195	following	-0.08014245
-4.031382	fondly	-0.08014245
-3.823728	food	-0.08014245
-2.066926	for	-0.2302093
-3.542115	force	-0.1031446
-4.031382	forced	-0.08014245
-3.372694	forces	-0.08014245
-4.031382	forcing	-0.08014245
-3.823728	forecast	-0.08014245
-3.862907	forecasts	-0.08014245
-2.79917	foreign	-0.2024936
-4.031382	foremost	-0.08014245
-3.660485	forest	-0.08014244
-4.031382	forever	-0.08014245
-3.823728	forex	-0.08014245
-4.031382	forgotten	-0.08014245
-3.862907	form	-0.08014245
-4.031382	formation	-0.08014244
-3.372694	former	-0.08014245
-4.031382	fortune	-0.08014244
-3.660485	forum	-0.08014245
-4.031382	forwads	-0.08014245
-4.031382	fought	-0.08014245
-4.031382	fouls	-0.08014245
-3.542115	found	-0.1151193
-4.031382	founder	-0.08014245
-3.115607	four	-0.1256529
-3.660485	fourth	-0.08014245
-4.031382	frame	-0.08014245
-3.862907	framework	-0.08014245
-3.862907	france	-0.1948595
-4.031382	frankfurt	-0.08014244
-4.031382	fraud	-0.08014245
-4.031382	fraudsters	-0.08014245
-4.031382	fraudulent	-0.08014245
-3.449195	free	-0.1419483
-4.031382	freeze	-0.08014245
-4.031382	french	-0.08014245
-3.862907	frequently	-0.1948595
-3.660485	fresh	-0.08014244
-3.862907	friday	-0.08014245
-3.823728	friend	-0.08014245
-3.862907	friendly	-0.08014245
-3.862907	friends	-0.08014244
-4.031382	frivolous	-0.08014245
-2.324448	from	-0.2427154
-4.031382	front	-0.08014245
-4.031382	frontier	-0.08014245
-4.031382	frontrunner	-0.08014245
-4.031382	fruit	-0.08014245
-4.031382	fta	-0.08014244
-4.031382	ftse	-0.08014244
-3.823728	fuel	-0.08014246
-3.862907	fugitive	-0.08014244
-4.031382	fuji	-0.08014245
-4.031382	fulfill	-0.08014245
-3.449195	full	-0.1151193
-3.862907	fully	-0.08014245
-4.031382	function	-0.08014245
-4.031382	functioned	-0.08014245
-3.862907	functioning	-0.1948595
-3.542115	fund	-0.08014245
-4.031382	fundamental	-0.08014244
-4.031382	fundamentalism	-0.08014245
-4.031382	funding	-0.08014245
-3.823728	funds	-0.08014245
-4.031382	funeral	-0.08014245
-3.201108	further	-0.09887077
-3.862907	future	-0.08014245
-4.031382	futures	-0.08014245
-4.031382	gagne	-0.08014245
-3.660485	gained	-0.1337242
-4.031382	galina	-0.08014245
-3.542115	game	-0.08014245
-3.862907	games	-0.08014245
-4.031382	gang	-0.08014244
-4.031382	gangs	-0.08014245
-4.031382	gangsta	-0.08014244
-3.823728	garbage	-0.1531619
-3.862907	gas	-0.08014245
-3.862907	gasoline	-0.08014245
-4.031382	gathered	-0.08014245
-3.862907	gathering	-0.08014245
-3.862907	gave	-0.08014244
-3.372694	gaza	-0.1315144
-4.031382	gearing	-0.08014244
-3.660485	general	-0.1337242
-4.031382	generate	-0.08014245
-3.660485	generation	-0.1337242
-4.031382	generational	-0.08014245
-4.031382	geneva	-0.08014245
-4.031382	genuine	-0.08014245
-4.031382	geoffrey	-0.08014245
-3.862907	george	-0.08014245
-3.862907	georgia	-0.08014244
-3.542115	get	-0.1099468
-3.862907	getting	-0.08014245
-3.823728	giant	-0.08014244
-4.031382	gigantism	-0.08014245
-4.031382	gird	-0.08014245
-4.031382	girl	-0.08014245
-3.660485	give	-0.08014245
-3.542115	given	-0.08014245
-4.031382	gives	-0.08014245
-3.862907	giving	-0.08014245
-3.542115	global	-0.08014245
-4.031382	gmt	-0.08014245
-3.862907	go	-0.08014245
-4.031382	godfrey	-0.08014245
-4.031382	goes	-0.08014244
-3.449195	going	-0.1337242
-3.862907	gold	-0.08014245
-4.031382	golden	-0.08014245
-4.031382	gone	-0.08014245
-3.449195	good	-0.08014245
-3.862907	goods	-0.08014245
-3.372694	got	-0.1099468
-4.031382	governance	-0.08014245
-2.780836	government	-0.1750139
-4.031382	governmental	-0.08014245
-3.823728	governments	-0.08014245
-4.031382	governor	-0.08014245
-4.031382	grabbing	-0.08014245
-4.031382	graffiti	-0.08014245
-3.862907	grand	-0.08014245
-4.031382	grandiose	-0.08014244
-3.862907	grant	-0.08014245
-4.031382	gravity	-0.08014245
-3.823728	grayken	-0.08014245
-3.862907	great	-0.08014245
-4.031382	greater	-0.08014244
-4.031382	greenhouse	-0.08014245
-4.031382	greenwood	-0.08014245
-4.031382	greeted	-0.08014245
-4.031382	greg	-0.08014245
-3.862907	grier	-0.08014245
-4.031382	grip	-0.08014244
-4.031382	gross	-0.08014245
-3.862907	ground	-0.08014245
-2.95521	group	-0.1038493
-4.031382	groups	-0.08014245
-3.660485	growing	-0.1224659
-3.823728	growth	-0.08014244
-4.031382	gruff	-0.08014245
-4.031382	grumbled	-0.08014245
-4.031382	guangcheng	-0.08014245
-4.031382	guarantees	-0.08014245
-4.031382	guarding	-0.08014245
-4.031382	guerrillas	-0.08014245
-4.031382	guessing	-0.08014245
-4.031382	guillermo	-0.08014245
-3.660485	guilty	-0.1337242
-4.031382	gulbuddin	-0.08014245
-4.031382	gunfire	-0.08014245
-4.031382	gunship	-0.08014245
-4.031382	gus	-0.08014245
-4.031382	gusting	-0.08014244
-4.031382	guy	-0.08014245
-4.031382	guys	-0.08014245
-4.031382	gwan	-0.08014245
-4.031382	hackles	-0.08014245
-2.582533	had	-0.1305224
-3.823728	hailed	-0.1531619
-4.031382	haiping	-0.08014245
-3.449195	half	-0.1151193
-4.031382	hall	-0.08014244
-4.031382	halt	-0.08014245
-4.031382	hamli	-0.08014245
-4.031382	han	-0.08014245
-3.862907	hand	-0.08014245
-4.031382	handbill	-0.08014245
-3.862907	handed	-0.08014245
-4.031382	handful	-0.08014244
-4.031382	handle	-0.08014244
-4.031382	hands	-0.08014244
-4.031382	hang	-0.08014245
-4.031382	haniya	-0.08014245
-4.031382	hankook	-0.08014245
-3.823728	hanoi	-0.1531619
-4.031382	hans	-0.08014245
-3.862907	hanun	-0.08014245
-4.031382	happen	-0.08014245
-3.823728	happened	-0.08014245
-4.031382	happy	-0.08014245
-4.031382	harassed	-0.08014245
-3.862907	harbouring	-0.08014245
-4.031382	harbours	-0.08014245
-4.031382	harbourside	-0.08014245
-3.449195	hard	-0.1099468
-4.031382	hardcourt	-0.08014245
-3.823728	hardline	-0.08014245
-3.862907	harkleroad	-0.1948595
-2.438658	has	-0.2378737
-3.823728	hasan	-0.1531619
-3.862907	hassan	-0.08014245
-2.539275	have	-0.1565566
-4.031382	haven	-0.08014245
-3.862907	having	-0.08014245
-4.031382	hawk	-0.08014244
-2.684615	he	-0.2351995
-3.449195	head	-0.1694826
-3.862907	headquarters	-0.08014245
-4.031382	heads	-0.08014245
-4.031382	healthy	-0.08014245
-4.031382	hear	-0.08014245
-4.031382	heard	-0.08014244
-4.031382	heart	-0.08014244
-4.031382	heartened	-0.08014245
-4.031382	heartfelt	-0.08014245
-3.823728	heat	-0.08014245
-3.823728	heating	-0.1531619
-4.031382	heavily	-0.08014245
-4.031382	heavy	-0.08014245
-4.031382	heavyweight	-0.08014245
-4.031382	hectares	-0.08014245
-4.031382	hee	-0.08014244
-4.031382	heed	-0.08014245
-4.031382	heightened	-0.08014245
-4.031382	hekmatyar	-0.08014245
-3.449195	held	-0.08014245
-3.862907	helen	-0.08014245
-4.031382	helicopter	-0.08014245
-3.862907	help	-0.08014244
-3.862907	helping	-0.08014245
-4.031382	helps	-0.08014245
-3.542115	her	-0.08014245
-3.372694	here	-0.1764968
-4.031382	hernandez	-0.08014245
-3.542115	hezbollah	-0.08014244
-4.031382	hideo	-0.08014245
-3.156257	high	-0.1114921
-3.823728	higher	-0.08014245
-4.031382	highest	-0.08014244
-4.031382	highlight	-0.08014245
-4.031382	highways	-0.08014245
-4.031382	hijack	-0.08014245
-3.862907	hijacking	-0.1948595
-4.031382	hijackings	-0.08014245
-4.031382	hike	-0.08014245
-3.862907	hill	-0.08014245
-4.031382	hillary	-0.08014244
-4.031382	hillman	-0.08014245
-4.031382	hills	-0.08014244
-3.307672	him	-0.1274336
-3.862907	himself	-0.08014245
-4.031382	hindered	-0.08014245
-3.862907	hinrich	-0.08014245
-4.031382	hired	-0.08014245
-3.862907	hirosawa	-0.1948595
-2.699243	his	-0.1011473
-4.031382	history	-0.08014244
-3.660485	hit	-0.08014245
-4.031382	hitting	-0.08014245
-4.031382	hkicpa	-0.08014245
-3.862907	ho	-0.08014245
-4.031382	hoe	-0.08014245
-4.031382	hoisted	-0.08014245
-3.862907	hold	-0.08014245
-4.031382	holder	-0.08014245
-4.031382	holding	-0.08014245
-3.862907	holdings	-0.08014245
-4.031382	hole	-0.08014245
-4.031382	holy	-0.08014245
-3.542115	home	-0.08014245
-4.031382	homes	-0.08014245
-4.031382	homework	-0.08014245
-4.031382	honest	-0.08014245
-3.823728	hong	-0.2820911
-4.031382	honour	-0.08014245
-3.862907	hope	-0.08014245
-3.862907	hoped	-0.08014245
-3.449195	hopes	-0.1151193
-4.031382	hordes	-0.08014245
-3.862907	horn	-0.08014245
-3.823728	hospital	-0.1224659
-4.031382	hostilities	-0.08014245
-4.031382	hostility	-0.08014245
-4.031382	hosting	-0.08014245
-4.031382	hot	-0.08014245
-4.031382	hour	-0.08014245
-4.031382	hours	-0.08014244
-3.823728	house	-0.1531619
-3.862907	housing	-0.08014245
-3.823728	how	-0.08014245
-3.823728	however	-0.08014245
-4.031382	hrw	-0.08014245
-3.862907	hsbc	-0.08014245
-4.031382	huddled	-0.08014245
-4.031382	huge	-0.08014245
-4.031382	hughes	-0.08014245
-3.542115	human	-0.1694826
-4.031382	humour	-0.08014245
-4.031382	hundreds	-0.08014244
-4.031382	hungary	-0.08014245
-4.031382	hungry	-0.08014245
-3.862907	hurdle	-0.08014245
-4.031382	hurdles	-0.08014245
-4.031382	hurry	-0.08014245
-4.031382	hurt	-0.08014245
-4.031382	hussein	-0.08014244
-4.031382	hwan	-0.08014245
-4.031382	hyun	-0.08014245
-3.156257	i	-0.1672434
-4.031382	ice	-0.08014245
-4.031382	idea	-0.08014245
-4.031382	idealistic	-0.08014245
-3.862907	ideas	-0.08014245
-3.823728	identified	-0.1531619
-4.031382	identify	-0.08014245
-2.929184	if	-0.2238766
-3.862907	igad	-0.08014245
-4.031382	ignored	-0.08014245
-4.031382	ii	-0.08014245
-4.031382	ilbo	-0.08014245
-3.201108	illegal	-0.09593641
-4.031382	illegally	-0.08014245
-4.031382	iloilo	-0.08014245
-4.031382	iluka	-0.08014245
-4.031382	imam	-0.08014245
-4.031382	imb	-0.08014245
-4.031382	immediately	-0.08014245
-4.031382	immigrant	-0.08014245
-4.031382	immigrants	-0.08014245
-4.031382	immigration	-0.08014245
-3.660485	impact	-0.2221472
-3.862907	implementing	-0.08014244
-4.031382	implied	-0.08014245
-4.031382	importance	-0.08014244
-3.862907	important	-0.08014245
-4.031382	imports	-0.08014245
-3.823728	imposed	-0.08014245
-3.823728	impoverished	-0.08014244
-4.031382	impression	-0.08014244
-4.031382	imprisoned	-0.08014245
-4.031382	imprisonment	-0.08014245
-3.862907	improve	-0.08014245
-3.862907	improvement	-0.08014245
-4.031382	improving	-0.08014245
-1.643113	in	-0.3908295
-4.031382	inability	-0.08014245
-4.031382	inched	-0.08014244
-4.031382	incident	-0.08014245
-3.862907	include	-0.08014245
-4.031382	included	-0.08014245
-3.660485	including	-0.1099468
-4.031382	inclusion	-0.08014244
-3.823728	incombank	-0.08014245
-4.031382	incompatible	-0.08014245
-3.862907	increase	-0.08014244
-3.862907	increased	-0.08014245
-4.031382	increasing	-0.08014245
-3.862907	incumbent	-0.08014245
-3.862907	incursion	-0.08014244
-4.031382	incursions	-0.08014245
-4.031382	independence	-0.08014245
-3.660485	independent	-0.08014245
-3.307672	index	-0.1007888
-3.862907	india	-0.08014245
-3.660485	indian	-0.08014245
-4.031382	indians	-0.08014244
-4.031382	indicated	-0.08014245
-3.862907	indicators	-0.08014245
-4.031382	indicted	-0.08014245
-4.031382	indictment	-0.08014244
-4.031382	indifference	-0.08014245
-4.031382	indifferent	-0.08014245
-4.031382	individual	-0.08014245
-3.823728	individuals	-0.08014245
-3.449195	indonesia	-0.2135304
-4.031382	indonesian	-0.08014245
-3.660485	industrial	-0.1337242
-4.031382	industrials	-0.08014244
-4.031382	industries	-0.08014245
-3.862907	industry	-0.08014245
-4.031382	infant	-0.08014245
-3.862907	infantry	-0.08014245
-4.031382	infants	-0.08014244
-4.031382	inferior	-0.08014245
-4.031382	infighting	-0.08014245
-4.031382	inflation	-0.08014245
-4.031382	inflow	-0.08014244
-3.862907	influential	-0.08014245
-3.862907	information	-0.08014245
-3.044202	infrastructure	-0.1196964
-4.031382	inhabitants	-0.08014245
-3.660485	initial	-0.1224659
-3.862907	initiated	-0.08014245
-4.031382	initiating	-0.08014245
-3.862907	initiative	-0.08014245
-3.823728	injured	-0.08014245
-4.031382	injuries	-0.08014245
-3.862907	injury	-0.08014245
-4.031382	innings	-0.08014245
-4.031382	innocence	-0.08014245
-4.031382	innocent	-0.08014244
-4.031382	insight	-0.08014245
-4.031382	insist	-0.08014245
-3.862907	insists	-0.08014245
-4.031382	inspecting	-0.08014245
-4.031382	inspections	-0.08014245
-4.031382	inspired	-0.08014245
-4.031382	instability	-0.08014245
-4.031382	installed	-0.08014245
-3.823728	instead	-0.2820911
-4.031382	institute	-0.08014244
-4.031382	institutions	-0.08014245
-4.031382	instructed	-0.08014245
-4.031382	insulted	-0.08014245
-4.031382	insulting	-0.08014245
-4.031382	insurance	-0.08014245
-3.823728	insurgency	-0.08014245
-4.031382	insurgents	-0.08014245
-3.862907	intelligence	-0.08014245
-4.031382	intelligent	-0.08014245
-4.031382	intensive	-0.08014245
-3.862907	intention	-0.1948595
-3.862907	inter	-0.1948595
-3.307672	interest	-0.2492234
-4.031382	interests	-0.08014244
-3.862907	interim	-0.08014245
-3.862907	interior	-0.08014245
-4.031382	internal	-0.08014245
-2.95521	international	-0.1050385
-4.031382	internationalist	-0.08014245
-4.031382	internet	-0.08014245
-3.823728	intervention	-0.08014245
-3.823728	interview	-0.1531619
-3.823728	interviewed	-0.08014245
-2.881389	into	-0.2800381
-3.862907	introduced	-0.08014245
-4.031382	intrusion	-0.08014244
-4.031382	invasion	-0.08014245
-4.031382	inventory	-0.08014245
-4.031382	invest	-0.08014245
-3.862907	investigate	-0.08014245
-3.449195	investigation	-0.1099468
-3.862907	investigators	-0.08014245
-3.449195	investment	-0.1151193
-3.823728	investor	-0.2221472
-3.449195	investors	-0.1099468
-4.031382	invitation	-0.08014244
-3.823728	involved	-0.1531619
-4.031382	involvement	-0.08014245
-4.031382	involves	-0.08014245
-4.031382	involving	-0.08014245
-3.823728	ipo	-0.08014245
-3.823728	iran	-0.08014245
-3.449195	iraq	-0.08014245
-3.862907	iraqi	-0.08014245
-4.031382	ire	-0.08014244
-4.031382	irfanullah	-0.08014245
-4.031382	iron	-0.08014245
-4.031382	ironically	-0.08014245
-3.862907	irp	-0.08014245
-4.031382	irritable	-0.08014245
-2.282594	is	-0.1574652
-4.031382	islam	-0.08014245
-4.031382	islamabad	-0.08014245
-3.542115	islamic	-0.08014245
-3.307672	islamist	-0.08014245
-3.862907	islamists	-0.08014245
-4.031382	islamiyah	-0.08014244
-3.823728	island	-0.08014245
-4.031382	islands	-0.08014244
-4.031382	ismail	-0.08014245
-4.031382	isolate	-0.08014245
-4.031382	isolated	-0.08014245
-3.115607	israel	-0.160604
-3.201108	israeli	-0.1172672
-3.542115	issue	-0.1224659
-4.031382	issued	-0.08014245
-3.372694	issues	-0.08014245
-2.47261	it	-0.2561135
-4.031382	italian	-0.08014245
-3.862907	italy	-0.08014244
-2.539275	its	-0.1118951
-3.862907	itself	-0.1948595
-4.031382	jackets	-0.08014245
-4.031382	jackson	-0.08014245
-3.862907	jaden	-0.08014245
-4.031382	jae	-0.08014245
-3.862907	jail	-0.08014245
-3.542115	jailed	-0.1224659
-4.031382	jailing	-0.08014245
-3.823728	jakarta	-0.08014246
-4.031382	jamea	-0.08014245
-3.862907	james	-0.1948595
-4.031382	jan	-0.08014245
-4.031382	jang	-0.08014245
-3.823728	january	-0.08014245
-3.823728	japan	-0.1337242
-3.660485	japanese	-0.1151193
-4.031382	java	-0.08014245
-4.031382	javier	-0.08014245
-4.031382	jays	-0.08014245
-4.031382	jean	-0.08014245
-4.031382	jeanne	-0.08014245
-4.031382	jeff	-0.08014245
-4.031382	jemaah	-0.08014245
-3.862907	jerusalem	-0.08014245
-3.862907	jets	-0.08014245
-4.031382	jewish	-0.08014245
-3.862907	ji	-0.08014245
-4.031382	jianhui	-0.08014245
-4.031382	jihadists	-0.08014245
-4.031382	jinsong	-0.08014245
-3.862907	job	-0.08014245
-3.862907	jobs	-0.08014245
-4.031382	johannesburg	-0.08014245
-3.823728	john	-0.08014245
-4.031382	join	-0.08014245
-4.031382	joint	-0.08014245
-4.031382	jombang	-0.08014244
-4.031382	jong	-0.08014245
-3.823728	jordan	-0.08014245
-4.031382	josefa	-0.08014245
-4.031382	joseph	-0.08014245
-4.031382	joung	-0.08014245
-4.031382	journal	-0.08014245
-3.823728	journalists	-0.1531619
-3.823728	juba	-0.1531619
-4.031382	judgement	-0.08014245
-4.031382	judgment	-0.08014245
-4.031382	julie	-0.08014245
-3.542115	july	-0.1031446
-3.823728	jumped	-0.08014245
-3.823728	june	-0.08014245
-3.862907	junta	-0.08014245
-3.862907	jurisdiction	-0.08014245
-4.031382	jurisdictional	-0.08014245
-3.156257	just	-0.09727887
-4.031382	justice	-0.08014245
-4.031382	justify	-0.08014245
-3.542115	kabiri	-0.1912315
-4.031382	kabul	-0.08014245
-4.031382	kaesong	-0.08014245
-4.031382	kajuwatta	-0.08014245
-4.031382	kashmir	-0.08014245
-4.031382	kathiraveli	-0.08014245
-3.25113	keb	-0.1274336
-4.031382	keep	-0.08014245
-3.542115	kenya	-0.1694826
-4.031382	kenyan	-0.08014245
-4.031382	kept	-0.08014245
-3.25113	kerry	-0.1007888
-3.542115	key	-0.08014245
-4.031382	kfir	-0.08014245
-3.862907	khar	-0.1948595
-3.862907	khartoum	-0.08014245
-4.031382	khodro	-0.08014245
-4.031382	khost	-0.08014245
-3.862907	ki	-0.1948595
-4.031382	kick	-0.08014245
-3.862907	kill	-0.08014245
-3.201108	killed	-0.1375428
-4.031382	kills	-0.08014245
-4.031382	kilometer	-0.08014244
-3.862907	kilometers	-0.1948595
-4.031382	kilometre	-0.08014244
-3.542115	kim	-0.1151193
-4.031382	king	-0.08014245
-4.031382	kirk	-0.08014245
-4.031382	kitchen	-0.08014245
-4.031382	klerk	-0.08014245
-4.031382	knee	-0.08014245
-4.031382	knots	-0.08014245
-3.823728	know	-0.08014245
-3.823728	known	-0.08014245
-4.031382	knows	-0.08014245
-4.031382	kobe	-0.08014245
-4.031382	kong	-0.08014245
-4.031382	kony	-0.08014245
-4.031382	kookmin	-0.08014245
-3.660485	korea	-0.1246186
-3.542115	korean	-0.08014245
-4.031382	koreas	-0.08014245
-3.823728	kuala	-0.2820911
-4.031382	kulov	-0.08014245
-4.031382	kumgang	-0.08014245
-4.031382	kunar	-0.08014245
-4.031382	kurdish	-0.08014245
-4.031382	kurmanbek	-0.08014244
-4.031382	kwang	-0.08014245
-4.031382	kye	-0.08014245
-4.031382	kyoto	-0.08014245
-4.031382	kyrgyz	-0.08014244
-4.031382	kyriakopoulos	-0.08014245
-4.031382	kyu	-0.08014245
-4.031382	kyung	-0.08014245
-4.031382	labeling	-0.08014245
-4.031382	labor	-0.08014245
-4.031382	lack	-0.08014244
-3.862907	laden	-0.08014245
-3.862907	laggard	-0.1948595
-4.031382	laid	-0.08014245
-4.031382	laisenia	-0.08014245
-3.823728	lakers	-0.08014244
-4.031382	lamar	-0.08014245
-4.031382	lambasting	-0.08014245
-4.031382	lambregts	-0.08014245
-4.031382	lambroschini	-0.08014245
-4.031382	lame	-0.08014245
-4.031382	landmark	-0.08014245
-4.031382	language	-0.08014245
-4.031382	languished	-0.08014245
-4.031382	lanka	-0.08014245
-4.031382	lankan	-0.08014245
-4.031382	largely	-0.08014245
-4.031382	larger	-0.08014245
-3.660485	largest	-0.1337242
-2.780836	last	-0.4089829
-4.031382	lasted	-0.08014245
-3.156257	late	-0.2836692
-3.542115	later	-0.1224659
-3.862907	latest	-0.08014244
-4.031382	launch	-0.08014245
-3.372694	launched	-0.1099468
-4.031382	laundering	-0.08014245
-4.031382	lausanne	-0.08014245
-3.078439	law	-0.1941978
-3.862907	lawmakers	-0.08014244
-4.031382	lawrence	-0.08014245
-3.862907	laws	-0.08014244
-4.031382	lawsuit	-0.08014245
-3.823728	lawsuits	-0.08014245
-3.862907	lawyer	-0.1531619
-3.823728	lawyers	-0.08014245
-3.307672	lead	-0.1061075
-3.115607	leader	-0.1293595
-3.201108	leaders	-0.09727887
-3.449195	leadership	-0.08014244
-3.542115	leading	-0.1151193
-3.823728	league	-0.08014245
-4.031382	least	-0.08014245
-4.031382	leave	-0.08014245
-4.031382	leaving	-0.08014245
-3.862907	lebanese	-0.08014245
-3.449195	lebanon	-0.1099468
-3.201108	led	-0.1414509
-3.823728	lee	-0.1337242
-3.862907	left	-0.08014245
-4.031382	lefthander	-0.08014245
-4.031382	leg	-0.08014245
-3.372694	legal	-0.1061075
-4.031382	legality	-0.08014244
-3.862907	legislation	-0.08014245
-4.031382	legislator	-0.08014245
-3.862907	legislature	-0.08014245
-4.031382	legitimacy	-0.08014244
-3.862907	legitimate	-0.08014245
-4.031382	leighton	-0.08014245
-4.031382	lender	-0.08014245
-4.031382	leniency	-0.08014245
-3.823728	less	-0.1531619
-4.031382	let	-0.08014245
-3.660485	level	-0.08014245
-4.031382	levels	-0.08014245
-3.823728	li	-0.08014245
-4.031382	liberation	-0.08014245
-4.031382	life	-0.08014245
-4.031382	lift	-0.08014245
-3.862907	lifted	-0.08014244
-3.862907	lifting	-0.08014245
-4.031382	lifts	-0.08014245
-3.823728	light	-0.08014245
-4.031382	lihir	-0.08014245
-3.307672	like	-0.1337242
-4.031382	likelihood	-0.08014245
-3.660485	likely	-0.2221473
-4.031382	lilia	-0.08014245
-4.031382	lim	-0.08014245
-4.031382	limit	-0.08014245
-3.862907	limited	-0.08014245
-4.031382	limiting	-0.08014245
-4.031382	limits	-0.08014245
-3.862907	line	-0.1948595
-4.031382	liner	-0.08014245
-3.823728	lines	-0.08014245
-3.862907	linked	-0.08014245
-4.031382	links	-0.08014245
-4.031382	linyi	-0.08014245
-4.031382	list	-0.08014245
-4.031382	listing	-0.08014245
-4.031382	liter	-0.08014245
-3.862907	litigation	-0.08014245
-3.823728	little	-0.08014245
-3.542115	liu	-0.1897887
-4.031382	live	-0.08014245
-3.449195	lives	-0.1151193
-3.823728	living	-0.08014245
-4.031382	lobbying	-0.08014245
-3.449195	local	-0.1531619
-4.031382	locally	-0.08014245
-4.031382	loggerheads	-0.08014245
-3.660485	london	-0.08014245
-3.25113	lone	-0.7592123
-4.031382	lonestar	-0.08014245
-3.372694	long	-0.1099468
-3.862907	longer	-0.08014245
-4.031382	longest	-0.08014245
-3.862907	look	-0.08014245
-3.823728	looked	-0.08014245
-3.862907	looking	-0.08014245
-4.031382	lord	-0.08014244
-3.449195	los	-0.5831211
-4.031382	lose	-0.08014245
-3.660485	losing	-0.1224659
-3.823728	loss	-0.08014245
-3.862907	losses	-0.08014245
-3.823728	lost	-0.08014245
-4.031382	lot	-0.08014245
-4.031382	louis	-0.08014245
-4.031382	loved	-0.08014245
-3.542115	low	-0.08014245
-3.823728	lower	-0.08014245
-4.031382	lowered	-0.08014245
-4.031382	lowest	-0.08014244
-4.031382	lows	-0.08014244
-3.660485	lra	-0.08014245
-3.862907	ltte	-0.08014245
-4.031382	lu	-0.08014245
-4.031382	luat	-0.08014245
-4.031382	lucrative	-0.08014245
-4.031382	lumpur	-0.08014245
-4.031382	luol	-0.08014245
-4.031382	lured	-0.08014245
-4.031382	luxury	-0.08014245
-3.862907	maddux	-0.08014245
-3.156257	made	-0.09887078
-4.031382	madrassa	-0.08014245
-4.031382	magazine	-0.08014245
-4.031382	magistrate	-0.08014245
-3.862907	mahendra	-0.1948595
-4.031382	mahindapura	-0.08014245
-3.660485	main	-0.08014245
-3.660485	mainly	-0.08014245
-4.031382	maintenance	-0.08014244
-4.031382	majea	-0.08014245
-3.660485	major	-0.08014245
-3.823728	majority	-0.08014244
-3.660485	make	-0.1151193
-4.031382	maker	-0.08014245
-4.031382	makers	-0.08014245
-3.542115	making	-0.08014245
-4.031382	malay	-0.08014245
-4.031382	malays	-0.08014245
-3.372694	malaysia	-0.1453664
-3.823728	malaysian	-0.1224659
-4.031382	malaysians	-0.08014245
-4.031382	mama	-0.08014245
-3.542115	man	-0.08014245
-4.031382	manager	-0.08014244
-4.031382	managers	-0.08014245
-4.031382	manar	-0.08014245
-3.823728	mandela	-0.08014244
-4.031382	manipulated	-0.08014245
-4.031382	manipulating	-0.08014245
-4.031382	manipulation	-0.08014245
-4.031382	mankerni	-0.08014245
-4.031382	manner	-0.08014245
-4.031382	manufacturers	-0.08014245
-3.156257	many	-0.1184433
-3.542115	march	-0.1151193
-4.031382	mardin	-0.08014245
-4.031382	margin	-0.08014245
-4.031382	marginal	-0.08014245
-4.031382	margins	-0.08014245
-4.031382	mario	-0.08014245
-4.031382	marion	-0.08014245
-4.031382	maritime	-0.08014245
-3.862907	marked	-0.08014245
-3.078439	market	-0.1295766
-4.031382	marketing	-0.08014245
-4.031382	marketplace	-0.08014245
-3.542115	markets	-0.08014245
-4.031382	marquee	-0.08014245
-4.031382	martin	-0.08014245
-4.031382	martina	-0.08014245
-4.031382	massachusetts	-0.08014245
-4.031382	massive	-0.08014245
-4.031382	mastermind	-0.08014245
-4.031382	match	-0.08014245
-4.031382	matter	-0.08014245
-4.031382	mau	-0.08014245
-4.031382	maurice	-0.08014245
-4.031382	mavericks	-0.08014245
-3.078439	may	-0.1619187
-4.031382	maybe	-0.08014245
-3.862907	mayor	-0.08014245
-3.862907	mbeki	-0.1948595
-4.031382	mccormack	-0.08014245
-3.823728	me	-0.08014245
-4.031382	mean	-0.08014245
-4.031382	meaningless	-0.08014245
-3.862907	meanwhile	-0.08014245
-3.862907	measures	-0.08014245
-3.862907	measuring	-0.08014245
-4.031382	mechanism	-0.08014245
-4.031382	mechanisms	-0.08014245
-3.660485	media	-0.1337242
-4.031382	mediated	-0.08014245
-4.031382	mediating	-0.08014245
-3.823728	mediation	-0.1531619
-3.823728	mediator	-0.1531619
-4.031382	mediators	-0.08014245
-3.862907	medical	-0.1948595
-4.031382	medley	-0.08014244
-3.862907	meet	-0.08014245
-3.307672	meeting	-0.1007888
-4.031382	meetings	-0.08014245
-4.031382	melis	-0.08014245
-3.862907	member	-0.08014245
-3.542115	members	-0.1897887
-4.031382	memorandum	-0.08014244
-3.660485	men	-0.1555384
-4.031382	meng	-0.08014245
-4.031382	mentor	-0.08014245
-4.031382	mere	-0.08014245
-4.031382	merged	-0.08014245
-4.031382	mergers	-0.08014245
-4.031382	meritorious	-0.08014245
-3.862907	metal	-0.08014245
-4.031382	methods	-0.08014245
-4.031382	metre	-0.08014245
-4.031382	meyers	-0.08014245
-3.449195	miami	-0.1151193
-4.031382	michael	-0.08014244
-3.862907	middle	-0.1948595
-4.031382	mideast	-0.08014245
-4.031382	midterm	-0.08014245
-3.823728	might	-0.08014245
-4.031382	mile	-0.08014245
-3.823728	miles	-0.1531619
-3.823728	militant	-0.1531619
-3.307672	militants	-0.1061075
-2.929184	military	-0.117572
-4.031382	militia	-0.08014245
-4.031382	milk	-0.08014245
-3.115607	million	-0.2034228
-4.031382	min	-0.08014245
-4.031382	mind	-0.08014245
-4.031382	mine	-0.08014245
-4.031382	minh	-0.08014245
-3.660485	mini	-0.2221472
-4.031382	minibus	-0.08014245
-4.031382	minimizes	-0.08014245
-4.031382	minimum	-0.08014245
-3.862907	mining	-0.08014245
-3.25113	minister	-0.1069715
-4.031382	ministerial	-0.08014245
-3.823728	ministers	-0.08014245
-3.542115	ministry	-0.08014245
-4.031382	minnesota	-0.08014245
-4.031382	minor	-0.08014245
-4.031382	minority	-0.08014245
-4.031382	minute	-0.08014245
-3.862907	minutes	-0.08014245
-4.031382	misery	-0.08014245
-4.031382	misguided	-0.08014245
-4.031382	mislead	-0.08014245
-4.031382	misri	-0.08014245
-3.862907	missile	-0.08014245
-4.031382	missiles	-0.08014245
-3.862907	missing	-0.08014245
-4.031382	missions	-0.08014244
-4.031382	mistakenly	-0.08014245
-4.031382	mitsubishi	-0.08014245
-3.862907	mitsui	-0.08014245
-3.862907	mixed	-0.08014245
-3.862907	mizuho	-0.08014244
-3.862907	mizutani	-0.08014245
-4.031382	mob	-0.08014245
-4.031382	mobile	-0.08014245
-3.862907	mock	-0.08014244
-4.031382	modalal	-0.08014245
-3.823728	model	-0.08014246
-4.031382	models	-0.08014245
-4.031382	moderate	-0.08014245
-4.031382	mogadishu	-0.08014245
-4.031382	mohamed	-0.08014245
-3.862907	mohammad	-0.08014245
-4.031382	mohammed	-0.08014245
-4.031382	mohmand	-0.08014245
-4.031382	molina	-0.08014245
-4.031382	mombasa	-0.08014245
-3.862907	moment	-0.08014245
-3.307672	monday	-0.1184433
-3.823728	money	-0.08014245
-3.862907	monitoring	-0.08014245
-3.449195	month	-0.1252935
-3.307672	months	-0.1274336
-4.031382	moo	-0.08014245
-4.031382	moon	-0.08014245
-2.746339	more	-0.3225532
-3.862907	morning	-0.08014245
-3.862907	mortar	-0.08014245
-4.031382	mortars	-0.08014245
-3.862907	moscow	-0.08014245
-3.25113	most	-0.2422765
-4.031382	mostly	-0.08014245
-4.031382	mother	-0.08014245
-3.862907	motivated	-0.1531619
-4.031382	motivation	-0.08014245
-4.031382	motor	-0.08014244
-4.031382	motors	-0.08014245
-4.031382	mount	-0.08014245
-3.823728	mounting	-0.1531619
-3.823728	move	-0.1531619
-4.031382	moved	-0.08014245
-3.660485	movement	-0.1337242
-4.031382	mp	-0.08014245
-4.031382	mps	-0.08014245
-3.823728	much	-0.08014244
-4.031382	muhiddin	-0.08014245
-4.031382	mulling	-0.08014245
-4.031382	mulls	-0.08014245
-4.031382	multi	-0.08014245
-4.031382	multilateral	-0.08014245
-3.862907	mumbai	-0.08014245
-4.031382	murder	-0.08014245
-4.031382	musharraf	-0.08014245
-4.031382	music	-0.08014245
-3.542115	muslim	-0.08014244
-3.660485	must	-0.08014245
-4.031382	muted	-0.08014245
-4.031382	mutiny	-0.08014245
-3.862907	mutual	-0.08014245
-3.823728	my	-0.08014245
-4.031382	myeong	-0.08014245
-4.031382	mysterious	-0.08014245
-4.031382	myung	-0.08014245
-3.823728	n't	-0.08014245
-4.031382	nabs	-0.08014245
-4.031382	nacional	-0.08014245
-4.031382	name	-0.08014245
-3.823728	named	-0.08014244
-3.862907	names	-0.08014245
-4.031382	namesake	-0.08014244
-4.031382	nanjing	-0.08014245
-3.823728	narathiwat	-0.08014245
-3.862907	narrowly	-0.1948595
-3.862907	nasrallah	-0.08014245
-3.660485	nation	-0.1419483
-3.201108	national	-0.09478902
-4.031382	nationalities	-0.08014244
-3.823728	nations	-0.08014246
-3.862907	nationwide	-0.08014245
-4.031382	nato	-0.08014244
-4.031382	natural	-0.08014245
-3.862907	nature	-0.08014245
-4.031382	nautical	-0.08014245
-3.862907	navy	-0.08014245
-4.031382	nba	-0.08014245
-4.031382	neal	-0.08014245
-3.449195	near	-0.1151193
-4.031382	nearby	-0.08014245
-3.862907	nearly	-0.1948595
-3.862907	necessary	-0.08014245
-3.823728	need	-0.1337242
-4.031382	needs	-0.08014245
-4.031382	neglect	-0.08014245
-4.031382	negotiating	-0.08014245
-4.031382	negotiation	-0.08014245
-3.449195	negotiations	-0.1184433
-3.862907	negotiator	-0.08014245
-3.862907	neighboring	-0.08014245
-4.031382	neighbors	-0.08014245
-3.823728	neighbouring	-0.08014245
-4.031382	neither	-0.08014245
-3.862907	nelson	-0.1948595
-3.660485	net	-0.4070298
-4.031382	netherlands	-0.08014245
-4.031382	netted	-0.08014245
-3.823728	network	-0.08014245
-4.031382	neutral	-0.08014245
-3.823728	never	-0.08014245
-4.031382	nevertheless	-0.08014245
-3.044202	new	-0.2080702
-4.031382	newcrest	-0.08014245
-3.115607	news	-0.1876455
-3.372694	newspaper	-0.1453665
-3.044202	next	-0.1901366
-3.862907	nguyen	-0.08014245
-3.660485	night	-0.08014245
-4.031382	nikkei	-0.08014245
-3.660485	nine	-0.08014245
-3.823728	nis	-0.08014245
-4.031382	nissan	-0.08014245
-3.862907	nkorea	-0.08014245
-2.95521	no	-0.08985175
-4.031382	no.	-0.08014245
-4.031382	noire	-0.08014245
-3.862907	nomination	-0.08014245
-4.031382	non	-0.08014245
-4.031382	none	-0.08014244
-3.823728	noordin	-0.08014245
-4.031382	normal	-0.08014245
-2.904629	north	-0.3622864
-4.031382	northeast	-0.08014245
-3.449195	northern	-0.1555384
-3.660485	norwegian	-0.1337242
-4.031382	norwegians	-0.08014245
-2.79917	not	-0.0969018
-4.031382	note	-0.08014245
-3.862907	noted	-0.08014245
-3.823728	nothing	-0.08014245
-4.031382	notice	-0.08014245
-4.031382	notification	-0.08014245
-4.031382	noting	-0.08014245
-3.862907	nouri	-0.08014244
-3.862907	nov	-0.08014244
-3.660485	november	-0.08014245
-3.25113	now	-0.09727886
-4.031382	ntv	-0.08014245
-3.156257	nuclear	-0.2489325
-4.031382	nuclearization	-0.08014245
-3.660485	number	-0.1224659
-4.031382	numbers	-0.08014244
-4.031382	numerous	-0.08014244
-4.031382	nyc	-0.08014245
-4.031382	nyse	-0.08014245
-3.862907	o	-0.1948595
-3.862907	oakland	-0.08014245
-4.031382	obaida	-0.08014245
-4.031382	observed	-0.08014245
-4.031382	obstacles	-0.08014245
-4.031382	obviously	-0.08014245
-4.031382	occupation	-0.08014245
-4.031382	occur	-0.08014245
-4.031382	ocean	-0.08014245
-4.031382	oct	-0.08014245
-3.307672	october	-0.1414509
-3.823728	odom	-0.08014245
-1.681354	of	-0.2707416
-3.156257	off	-0.1621079
-4.031382	offence	-0.08014245
-3.823728	offensive	-0.2221472
-3.660485	offer	-0.08014244
-3.823728	offered	-0.08014245
-4.031382	offering	-0.08014244
-4.031382	offerings	-0.08014244
-3.660485	office	-0.08014246
-4.031382	officer	-0.08014244
-3.823728	officers	-0.08014245
-3.201108	official	-0.1265849
-3.201108	officials	-0.2083977
-3.823728	offseason	-0.1531619
-3.660485	often	-0.08014245
-4.031382	ogasawara	-0.08014245
-3.078439	oil	-0.149476
-3.660485	old	-0.08014245
-4.031382	older	-0.08014244
-3.862907	olmert	-0.08014245
-3.862907	olympic	-0.08014245
-3.823728	olympics	-0.08014245
-4.031382	omurbek	-0.08014245
-2.043298	on	-0.3016342
-2.818312	one	-0.238361
-4.031382	ones	-0.08014245
-4.031382	onesteel	-0.08014244
-4.031382	ongoing	-0.08014245
-4.031382	online	-0.08014245
-3.156257	only	-0.08014245
-4.031382	onto	-0.08014245
-4.031382	onus	-0.08014245
-3.823728	opec	-0.08014245
-3.449195	open	-0.08014245
-3.542115	opened	-0.1693637
-3.823728	opener	-0.08014245
-3.823728	opening	-0.08014245
-3.862907	opens	-0.1948595
-3.862907	operating	-0.08014245
-3.25113	operation	-0.163974
-4.031382	operational	-0.08014245
-3.660485	operations	-0.08014244
-4.031382	opinion	-0.08014245
-4.031382	opponent	-0.08014245
-4.031382	opportunity	-0.08014245
-3.862907	opposed	-0.1948595
-3.201108	opposition	-0.1184433
-3.862907	optimism	-0.08014245
-3.862907	optimistic	-0.08014245
-2.763245	or	-0.1063286
-3.862907	order	-0.08014245
-3.862907	ordered	-0.08014245
-4.031382	orders	-0.08014245
-4.031382	ordinaries	-0.08014245
-4.031382	organisation	-0.08014245
-4.031382	organisations	-0.08014245
-4.031382	organise	-0.08014245
-4.031382	organiser	-0.08014245
-4.031382	organisers	-0.08014245
-4.031382	organization	-0.08014244
-3.862907	organizing	-0.08014244
-4.031382	organs	-0.08014245
-4.031382	oriented	-0.08014245
-4.031382	original	-0.08014245
-4.031382	originated	-0.08014245
-4.031382	osama	-0.08014245
-4.031382	oslo	-0.08014245
-4.031382	osterloh	-0.08014245
-3.25113	other	-0.08014245
-3.542115	others	-0.08014245
-4.031382	ottawa	-0.08014245
-4.031382	otton	-0.08014245
-4.031382	ounce	-0.08014245
-2.982896	our	-0.09887078
-4.031382	oust	-0.08014245
-4.031382	ousted	-0.08014245
-3.862907	ouster	-0.1948595
-2.714381	out	-0.2248911
-4.031382	outbuildings	-0.08014245
-3.823728	outcome	-0.08014245
-4.031382	outfielder	-0.08014245
-4.031382	outlined	-0.08014245
-4.031382	outlived	-0.08014245
-3.862907	outlook	-0.08014245
-3.862907	output	-0.1948595
-4.031382	outrageous	-0.08014245
-4.031382	outranked	-0.08014244
-4.031382	outscored	-0.08014245
-3.862907	outside	-0.08014245
-4.031382	outspoken	-0.08014245
-2.643473	over	-0.2938964
-3.862907	overall	-0.08014245
-4.031382	overbearing	-0.08014245
-4.031382	overburdened	-0.08014245
-4.031382	overflights	-0.08014244
-4.031382	overfly	-0.08014245
-3.307672	overnight	-0.2944214
-4.031382	overregulation	-0.08014245
-3.542115	overseas	-0.08014245
-4.031382	overseeing	-0.08014245
-4.031382	oversight	-0.08014245
-4.031382	overthrew	-0.08014245
-4.031382	overthrow	-0.08014245
-3.862907	overturned	-0.08014244
-4.031382	overturning	-0.08014244
-3.862907	owes	-0.08014245
-4.031382	owiny	-0.08014245
-4.031382	own	-0.08014245
-4.031382	owned	-0.08014244
-4.031382	oxiana	-0.08014245
-3.823728	p.w.	-0.2820911
-4.031382	pablo	-0.08014245
-4.031382	pace	-0.08014245
-3.542115	pacific	-0.1151193
-4.031382	pacifist	-0.08014244
-3.823728	pact	-0.1531619
-4.031382	paddy	-0.08014245
-4.031382	painted	-0.08014245
-3.156257	pakistan	-0.09593641
-3.823728	pakistani	-0.08014245
-4.031382	palace	-0.08014244
-4.031382	palestine	-0.08014245
-3.449195	palestinian	-0.08014245
-3.542115	palestinians	-0.1912315
-4.031382	panels	-0.08014245
-4.031382	paper	-0.08014245
-4.031382	parents	-0.08014245
-4.031382	pariah	-0.08014245
-4.031382	paris	-0.08014245
-3.542115	parliament	-0.08014245
-3.25113	part	-0.3889508
-4.031382	partial	-0.08014245
-4.031382	participate	-0.08014245
-4.031382	particularly	-0.08014245
-4.031382	partner	-0.08014245
-4.031382	partnership	-0.08014245
-3.307672	party	-0.1315144
-4.031382	pas	-0.08014245
-3.862907	pass	-0.08014245
-3.823728	passed	-0.08014245
-4.031382	passengers	-0.08014245
-4.031382	passing	-0.08014244
-4.031382	password	-0.08014245
-3.542115	past	-0.08014245
-4.031382	pasteurized	-0.08014245
-4.031382	pat	-0.08014245
-4.031382	patriot	-0.08014245
-4.031382	patriotism	-0.08014245
-3.862907	pay	-0.08014245
-4.031382	pays	-0.08014245
-3.862907	pct	-0.1948595
-3.115607	peace	-0.306956
-4.031382	peaceful	-0.08014245
-3.862907	peacekeeping	-0.1948595
-4.031382	pegged	-0.08014245
-2.95521	people	-0.1985364
-3.660485	per	-0.08014245
-3.372694	percent	-0.1474786
-4.031382	peretz	-0.08014245
-3.862907	performance	-0.08014246
-3.542115	period	-0.3190573
-4.031382	periodically	-0.08014245
-4.031382	perished	-0.08014245
-4.031382	permit	-0.08014245
-4.031382	perpetrated	-0.08014245
-4.031382	persists	-0.08014245
-3.823728	person	-0.08014245
-4.031382	personality	-0.08014245
-3.862907	personally	-0.08014245
-4.031382	persons	-0.08014245
-4.031382	pervez	-0.08014245
-4.031382	pesos	-0.08014245
-4.031382	pessimistic	-0.08014245
-4.031382	peter	-0.08014245
-4.031382	petroleum	-0.08014245
-4.031382	phap	-0.08014245
-4.031382	philippine	-0.08014245
-4.031382	phoenix	-0.08014244
-3.823728	phone	-0.08014245
-4.031382	pick	-0.08014245
-4.031382	picked	-0.08014245
-4.031382	picture	-0.08014244
-4.031382	piece	-0.08014245
-4.031382	pik	-0.08014244
-4.031382	piping	-0.08014245
-3.862907	piracy	-0.08014245
-4.031382	pirate	-0.08014245
-3.862907	pirates	-0.08014245
-4.031382	pitted	-0.08014245
-3.542115	place	-0.1061075
-3.862907	plan	-0.08014244
-3.660485	planned	-0.08014245
-3.862907	planning	-0.08014245
-3.862907	plans	-0.08014244
-3.862907	plant	-0.08014245
-3.823728	platform	-0.08014244
-3.862907	play	-0.08014245
-4.031382	played	-0.08014245
-3.823728	player	-0.1531619
-3.307672	players	-0.1685998
-3.823728	playing	-0.08014244
-3.862907	playoff	-0.08014245
-4.031382	playoffs	-0.08014245
-4.031382	plays	-0.08014245
-4.031382	pleaded	-0.08014244
-4.031382	please	-0.08014245
-4.031382	pleased	-0.08014245
-4.031382	pledge	-0.08014245
-3.862907	pledged	-0.08014244
-4.031382	plenty	-0.08014245
-4.031382	plight	-0.08014245
-4.031382	plot	-0.08014245
-3.862907	plotters	-0.1948595
-4.031382	plotting	-0.08014245
-3.862907	plunged	-0.08014245
-3.660485	pm	-0.08014245
-4.031382	point	-0.08014245
-4.031382	pointing	-0.08014245
-3.307672	points	-0.1544399
-4.031382	poiosed	-0.08014245
-4.031382	poland	-0.08014245
-3.115607	police	-0.08014245
-3.823728	policies	-0.08014245
-4.031382	policing	-0.08014245
-3.307672	policy	-0.1321447
-4.031382	polite	-0.08014245
-3.372694	political	-0.1419483
-4.031382	politically	-0.08014244
-4.031382	politicians	-0.08014245
-3.660485	poll	-0.08014245
-3.862907	polls	-0.08014244
-3.862907	popularity	-0.08014245
-3.823728	population	-0.1337242
-4.031382	populous	-0.08014245
-4.031382	porous	-0.08014245
-4.031382	port	-0.08014245
-4.031382	portion	-0.08014245
-3.823728	ports	-0.1531619
-4.031382	portuguese	-0.08014245
-4.031382	poses	-0.08014245
-4.031382	position	-0.08014245
-3.823728	positions	-0.08014245
-3.660485	positive	-0.08014245
-4.031382	possibility	-0.08014244
-3.660485	possible	-0.08014244
-3.862907	possibly	-0.08014245
-3.862907	post	-0.08014244
-3.862907	posted	-0.08014245
-3.823728	posts	-0.1531619
-3.823728	postseason	-0.08014245
-4.031382	pouch	-0.08014245
-4.031382	pounding	-0.08014245
-4.031382	poverty	-0.08014245
-3.542115	power	-0.1224659
-3.862907	powerful	-0.08014245
-4.031382	powers	-0.08014245
-3.660485	practices	-0.1337242
-4.031382	practicing	-0.08014245
-4.031382	praise	-0.08014245
-3.862907	pranai	-0.08014245
-4.031382	prasad	-0.08014245
-4.031382	pray	-0.08014245
-3.862907	pre	-0.1948595
-3.862907	predator	-0.08014245
-3.862907	predecessor	-0.08014245
-4.031382	predictability	-0.08014245
-4.031382	preferred	-0.08014245
-4.031382	pregnancies	-0.08014245
-4.031382	premature	-0.08014245
-3.862907	premier	-0.08014245
-4.031382	premise	-0.08014245
-4.031382	preparations	-0.08014245
-4.031382	prepare	-0.08014245
-4.031382	prepared	-0.08014245
-3.862907	preparing	-0.08014245
-3.862907	presence	-0.1948595
-3.823728	presented	-0.08014245
-4.031382	presently	-0.08014245
-4.031382	presided	-0.08014245
-4.031382	presidency	-0.08014245
-2.95521	president	-0.1191854
-3.449195	presidential	-0.1099468
-3.862907	press	-0.08014245
-4.031382	pressure	-0.08014245
-3.862907	prevail	-0.08014245
-3.862907	prevent	-0.08014245
-3.823728	previous	-0.08014245
-3.862907	previously	-0.08014245
-3.660485	price	-0.08014245
-3.372694	prices	-0.1184433
-3.862907	priest	-0.08014245
-3.078439	prime	-0.7340306
-4.031382	prince	-0.08014245
-3.862907	prison	-0.08014245
-3.823728	prisoners	-0.1531619
-3.823728	private	-0.08014245
-4.031382	prize	-0.08014245
-4.031382	prized	-0.08014245
-4.031382	proactive	-0.08014245
-4.031382	probability	-0.08014244
-4.031382	probably	-0.08014245
-4.031382	probation	-0.08014245
-3.823728	probe	-0.08014244
-4.031382	probed	-0.08014245
-3.823728	problem	-0.08014245
-3.862907	problems	-0.08014245
-4.031382	procedures	-0.08014245
-3.823728	process	-0.08014245
-3.660485	procurement	-0.08014245
-4.031382	produce	-0.08014245
-3.823728	produced	-0.08014245
-4.031382	product	-0.08014245
-3.660485	production	-0.1224659
-3.542115	products	-0.08014244
-3.862907	professor	-0.08014245
-4.031382	profile	-0.08014244
-3.449195	profit	-0.1099468
-3.823728	profitability	-0.08014245
-4.031382	profits	-0.08014245
-4.031382	profound	-0.08014245
-4.031382	programme	-0.08014245
-4.031382	programmes	-0.08014245
-3.862907	programs	-0.08014245
-3.449195	progress	-0.1151193
-3.862907	progressing	-0.08014245
-4.031382	project	-0.08014244
-4.031382	projected	-0.08014245
-3.25113	projects	-0.1376164
-4.031382	prolong	-0.08014245
-4.031382	prolonged	-0.08014245
-4.031382	prominent	-0.08014245
-4.031382	promise	-0.08014245
-4.031382	promised	-0.08014245
-4.031382	promising	-0.08014245
-4.031382	promo	-0.08014244
-4.031382	promotional	-0.08014245
-4.031382	promotions	-0.08014244
-3.862907	prompted	-0.08014245
-4.031382	promptly	-0.08014245
-4.031382	property	-0.08014245
-4.031382	prophet	-0.08014245
-4.031382	proposal	-0.08014245
-3.660485	proposals	-0.08014246
-4.031382	propose	-0.08014245
-3.862907	proposed	-0.08014245
-4.031382	prosecutor	-0.08014245
-3.372694	prosecutors	-0.1031446
-4.031382	protect	-0.08014245
-4.031382	protected	-0.08014245
-4.031382	protecting	-0.08014245
-3.862907	protest	-0.08014245
-4.031382	protested	-0.08014244
-4.031382	protesting	-0.08014245
-3.660485	protests	-0.1337242
-4.031382	protocol	-0.08014245
-4.031382	proton	-0.08014245
-4.031382	prove	-0.08014245
-4.031382	proven	-0.08014245
-3.862907	provide	-0.08014245
-4.031382	providing	-0.08014245
-3.372694	province	-0.1099468
-4.031382	provinces	-0.08014245
-4.031382	provincial	-0.08014245
-4.031382	provocation	-0.08014245
-4.031382	provocations	-0.08014245
-4.031382	psychological	-0.08014245
-3.25113	public	-0.08014245
-3.823728	published	-0.08014244
-3.862907	pull	-0.08014245
-3.862907	pulled	-0.1948595
-4.031382	punish	-0.08014245
-4.031382	puppets	-0.08014245
-4.031382	purchasing	-0.08014245
-4.031382	pursue	-0.08014245
-3.862907	push	-0.08014245
-3.862907	pushed	-0.08014245
-4.031382	pushing	-0.08014245
-3.823728	put	-0.08014246
-4.031382	putting	-0.08014245
-3.372694	pyongyang	-0.1225193
-4.031382	qaeda	-0.08014245
-4.031382	qantas	-0.08014245
-3.307672	qarase	-0.1544399
-4.031382	qasim	-0.08014245
-4.031382	qiao	-0.08014245
-4.031382	qq	-0.08014244
-4.031382	quality	-0.08014245
-3.823728	quarter	-0.08014245
-3.862907	quarters	-0.08014245
-3.862907	quartet	-0.08014245
-3.862907	quebec	-0.08014245
-3.823728	question	-0.1531619
-3.823728	questioned	-0.08014245
-4.031382	quick	-0.08014245
-3.862907	quickly	-0.08014245
-3.862907	quit	-0.1531619
-3.660485	quite	-0.1224659
-3.862907	quota	-0.1948595
-3.660485	quoted	-0.1337242
-4.031382	quoting	-0.08014245
-4.031382	quynh	-0.08014245
-4.031382	rabobank	-0.08014245
-3.862907	race	-0.08014245
-4.031382	races	-0.08014245
-3.862907	racial	-0.08014245
-4.031382	racially	-0.08014245
-3.862907	radio	-0.1531619
-4.031382	rafaelli	-0.08014245
-4.031382	raft	-0.08014244
-4.031382	rafters	-0.08014244
-4.031382	raged	-0.08014245
-4.031382	rai	-0.08014245
-3.449195	raid	-0.1337242
-3.862907	raids	-0.08014245
-4.031382	railways	-0.08014245
-3.823728	raised	-0.08014245
-4.031382	raising	-0.08014245
-3.660485	rakhmonov	-0.1224659
-3.823728	rally	-0.1531619
-4.031382	rallying	-0.08014245
-4.031382	ramon	-0.08014245
-4.031382	rampant	-0.08014245
-4.031382	ran	-0.08014245
-3.862907	random	-0.08014245
-4.031382	range	-0.08014244
-4.031382	ranked	-0.08014244
-4.031382	ranks	-0.08014245
-4.031382	ransom	-0.08014244
-3.660485	rap	-0.08014245
-4.031382	rapee	-0.08014245
-4.031382	rapidly	-0.08014245
-4.031382	rare	-0.08014245
-4.031382	rashid	-0.08014245
-3.660485	rate	-0.08014245
-3.862907	rates	-0.08014245
-4.031382	ratings	-0.08014245
-4.031382	ratio	-0.08014245
-4.031382	ratu	-0.08014245
-4.031382	raucous	-0.08014245
-4.031382	rauf	-0.08014245
-3.862907	ravaged	-0.08014245
-4.031382	re	-0.08014245
-3.823728	reached	-0.1337242
-4.031382	reaction	-0.08014245
-4.031382	reading	-0.08014244
-3.542115	ready	-0.1897887
-4.031382	real	-0.08014244
-4.031382	realise	-0.08014245
-4.031382	realized	-0.08014245
-3.862907	really	-0.08014246
-4.031382	reap	-0.08014245
-4.031382	reason	-0.08014245
-4.031382	reasons	-0.08014245
-3.823728	rebel	-0.08014245
-3.862907	rebellion	-0.08014245
-3.542115	rebels	-0.1151193
-3.862907	rebound	-0.08014245
-4.031382	rebounding	-0.08014245
-4.031382	rebounds	-0.08014245
-3.823728	recalled	-0.08014245
-3.660485	received	-0.1337242
-4.031382	receiving	-0.08014245
-3.660485	recent	-0.08014245
-4.031382	reception	-0.08014245
-4.031382	reclusive	-0.08014245
-4.031382	recognize	-0.08014245
-4.031382	recommitted	-0.08014245
-4.031382	reconaissance	-0.08014244
-4.031382	reconciliation	-0.08014245
-4.031382	reconquering	-0.08014245
-4.031382	reconsider	-0.08014245
-3.156257	record	-0.1453665
-4.031382	records	-0.08014245
-4.031382	recovering	-0.08014245
-4.031382	recovery	-0.08014245
-4.031382	recruitment	-0.08014244
-4.031382	recruits	-0.08014245
-4.031382	red	-0.08014245
-3.660485	reduce	-0.1337242
-4.031382	reducing	-0.08014245
-4.031382	reduction	-0.08014245
-4.031382	reductions	-0.08014245
-3.862907	referring	-0.1948595
-3.862907	reflects	-0.08014245
-4.031382	refocus	-0.08014245
-4.031382	reform	-0.08014245
-3.660485	reforms	-0.08014246
-4.031382	refrain	-0.08014245
-4.031382	refuge	-0.08014245
-4.031382	refusal	-0.08014245
-4.031382	refuse	-0.08014245
-3.660485	refused	-0.4070298
-4.031382	refuses	-0.08014245
-3.862907	refusing	-0.1948595
-4.031382	regain	-0.08014245
-4.031382	regardless	-0.08014244
-3.823728	regime	-0.08014245
-4.031382	regimes	-0.08014244
-3.823728	region	-0.1531619
-3.660485	regional	-0.08014245
-3.823728	regular	-0.08014245
-4.031382	regulation	-0.08014245
-3.823728	regulations	-0.08014245
-4.031382	regulators	-0.08014245
-3.372694	regulatory	-0.1555384
-4.031382	reinvigorate	-0.08014245
-3.449195	rejected	-0.1555384
-4.031382	rejoin	-0.08014245
-4.031382	rejuvenated	-0.08014245
-3.862907	rekindled	-0.08014245
-4.031382	relate	-0.08014245
-4.031382	related	-0.08014245
-4.031382	relating	-0.08014245
-3.542115	relations	-0.3190573
-4.031382	relationship	-0.08014245
-4.031382	relatively	-0.08014245
-4.031382	relatives	-0.08014245
-4.031382	relax	-0.08014245
-3.660485	release	-0.08014245
-3.862907	released	-0.08014245
-4.031382	releases	-0.08014245
-3.862907	religious	-0.08014245
-3.823728	remain	-0.08014245
-3.823728	remained	-0.08014245
-3.660485	remains	-0.1337242
-4.031382	remarkably	-0.08014245
-4.031382	remarks	-0.08014245
-4.031382	rematch	-0.08014245
-4.031382	remember	-0.08014245
-4.031382	remembered	-0.08014245
-4.031382	reminder	-0.08014244
-3.862907	removed	-0.08014244
-4.031382	renaissance	-0.08014245
-3.862907	renew	-0.08014245
-3.823728	renewed	-0.08014245
-4.031382	renounces	-0.08014245
-4.031382	reoccupation	-0.08014244
-4.031382	reoccupying	-0.08014245
-4.031382	reopen	-0.08014244
-4.031382	reopened	-0.08014245
-4.031382	reopens	-0.08014245
-4.031382	reorganising	-0.08014245
-4.031382	repaired	-0.08014245
-4.031382	repeated	-0.08014245
-3.823728	repeatedly	-0.1151193
-3.823728	replace	-0.1151193
-4.031382	replaces	-0.08014245
-3.201108	report	-0.1395063
-3.372694	reported	-0.2038735
-4.031382	reporters	-0.08014245
-3.823728	reports	-0.08014245
-3.862907	representative	-0.08014245
-3.862907	representatives	-0.08014245
-4.031382	reprisals	-0.08014245
-3.823728	republican	-0.08014245
-4.031382	republicans	-0.08014245
-4.031382	repute	-0.08014245
-4.031382	requested	-0.08014245
-4.031382	require	-0.08014244
-4.031382	requirements	-0.08014245
-4.031382	rescue	-0.08014245
-3.862907	research	-0.08014245
-4.031382	researcher	-0.08014245
-4.031382	researchers	-0.08014245
-3.862907	reserve	-0.08014244
-3.862907	reserves	-0.08014245
-3.862907	reshuffle	-0.08014245
-4.031382	resident	-0.08014245
-3.660485	residents	-0.1224659
-3.862907	resign	-0.08014245
-4.031382	resigned	-0.08014245
-4.031382	resigning	-0.08014245
-3.862907	resistance	-0.08014245
-4.031382	resisted	-0.08014245
-3.823728	resolution	-0.08014245
-4.031382	resolutions	-0.08014245
-3.823728	resolve	-0.2221473
-4.031382	resolving	-0.08014245
-4.031382	resona	-0.08014245
-4.031382	resort	-0.08014245
-4.031382	resource	-0.08014245
-4.031382	respondents	-0.08014245
-4.031382	response	-0.08014245
-3.862907	responsibility	-0.08014245
-4.031382	restore	-0.08014245
-4.031382	restoring	-0.08014245
-4.031382	result	-0.08014245
-4.031382	resulting	-0.08014245
-3.862907	results	-0.08014245
-3.660485	resume	-0.1337242
-4.031382	retaliated	-0.08014245
-4.031382	retaliatory	-0.08014245
-4.031382	retirement	-0.08014245
-4.031382	retiring	-0.08014245
-4.031382	retreated	-0.08014245
-3.862907	retrial	-0.1948595
-3.823728	return	-0.1531619
-4.031382	returned	-0.08014245
-4.031382	rev	-0.08014244
-4.031382	revenge	-0.08014245
-3.823728	revenue	-0.08014244
-3.862907	reverse	-0.08014245
-4.031382	review	-0.08014245
-4.031382	revise	-0.08014245
-4.031382	revised	-0.08014245
-4.031382	revisions	-0.08014245
-4.031382	revisit	-0.08014245
-3.862907	revived	-0.08014245
-4.031382	reviving	-0.08014245
-4.031382	reward	-0.08014245
-4.031382	rewrite	-0.08014245
-4.031382	rhetoric	-0.08014244
-4.031382	rice	-0.08014245
-4.031382	ride	-0.08014244
-4.031382	riding	-0.08014245
-3.862907	right	-0.08014245
-4.031382	righthander	-0.08014244
-4.031382	righthanders	-0.08014245
-3.823728	rights	-0.1224659
-3.862907	riley	-0.1948595
-4.031382	rim	-0.08014245
-4.031382	ring	-0.08014245
-4.031382	ringleaders	-0.08014245
-3.862907	rings	-0.08014245
-4.031382	rio	-0.08014245
-3.449195	rise	-0.1555384
-3.823728	rising	-0.08014245
-3.660485	risk	-0.08014246
-3.542115	risks	-0.1224659
-4.031382	rival	-0.08014245
-4.031382	rivalry	-0.08014245
-4.031382	rivals	-0.08014245
-4.031382	riverside	-0.08014245
-3.823728	roadmap	-0.08014245
-3.862907	roads	-0.1948595
-4.031382	roadside	-0.08014245
-4.031382	robert	-0.08014245
-4.031382	robust	-0.08014245
-4.031382	roc	-0.08014245
-4.031382	rocket	-0.08014245
-3.823728	rockets	-0.1531619
-4.031382	rodionova	-0.08014245
-4.031382	rodrigues	-0.08014245
-4.031382	rogue	-0.08014245
-3.307672	roh	-0.1376164
-3.862907	role	-0.08014245
-4.031382	rookies	-0.08014245
-3.044202	rose	-0.3369192
-4.031382	roster	-0.08014245
-4.031382	roughly	-0.08014244
-3.449195	round	-0.2135304
-4.031382	routine	-0.08014245
-4.031382	rubber	-0.08014245
-4.031382	rugged	-0.08014245
-3.542115	rule	-0.1224659
-4.031382	rules	-0.08014245
-3.862907	ruling	-0.08014245
-4.031382	rumors	-0.08014244
-3.660485	run	-0.08014244
-3.823728	running	-0.08014245
-4.031382	rupiah	-0.08014245
-4.031382	rural	-0.08014244
-3.862907	russia	-0.08014245
-3.823728	russian	-0.08014245
-4.031382	s.	-0.08014245
-4.031382	sack	-0.08014245
-4.031382	saddam	-0.08014245
-4.031382	sadness	-0.08014245
-3.862907	safety	-0.08014245
-4.031382	safina	-0.08014245
-2.19981	said	-0.4784256
-3.862907	sale	-0.08014245
-3.542115	sales	-0.1224659
-4.031382	salvage	-0.08014245
-3.823728	samarasinghe	-0.2820911
-4.031382	same	-0.08014245
-4.031382	sample	-0.08014244
-4.031382	san	-0.08014245
-3.25113	sanctions	-0.1151193
-3.862907	sanitation	-0.08014245
-4.031382	santos	-0.08014245
-4.031382	sat	-0.08014245
-4.031382	satisfied	-0.08014245
-4.031382	satoru	-0.08014245
-3.823728	saudi	-0.1531619
-4.031382	savaged	-0.08014245
-3.660485	say	-0.1224659
-3.823728	saying	-0.08014244
-3.542115	says	-0.08014245
-3.862907	sbpac	-0.08014245
-4.031382	scale	-0.08014245
-3.862907	scene	-0.08014245
-4.031382	scheme	-0.08014245
-4.031382	scholar	-0.08014245
-3.823728	school	-0.1337242
-4.031382	schools	-0.08014245
-3.862907	schumer	-0.08014245
-4.031382	science	-0.08014245
-3.660485	scored	-0.2221472
-4.031382	scorer	-0.08014245
-4.031382	scorn	-0.08014245
-4.031382	scrap	-0.08014245
-4.031382	scrub	-0.08014244
-4.031382	sea	-0.08014245
-3.823728	sealed	-0.1531619
-3.823728	sean	-0.08014245
-4.031382	search	-0.08014245
-3.823728	searching	-0.1531619
-3.372694	season	-0.1031446
-3.862907	seat	-0.08014244
-3.862907	seats	-0.08014245
-4.031382	seattle	-0.08014245
-3.660485	second	-0.08014245
-4.031382	seconds	-0.08014245
-3.823728	secretary	-0.1337242
-4.031382	sectarian	-0.08014245
-4.031382	section	-0.08014245
-3.25113	sector	-0.1621079
-4.031382	secure	-0.08014245
-4.031382	secured	-0.08014245
-3.660485	securities	-0.08014244
-2.881389	security	-0.1711171
-3.660485	see	-0.08014244
-4.031382	seed	-0.08014245
-4.031382	seeded	-0.08014245
-4.031382	seeks	-0.08014245
-3.862907	seems	-0.1948595
-3.542115	seen	-0.1151193
-4.031382	sefolosha	-0.08014245
-4.031382	segments	-0.08014244
-3.542115	seized	-0.2364295
-4.031382	select	-0.08014245
-4.031382	self	-0.08014245
-4.031382	sell	-0.08014245
-3.862907	selling	-0.08014245
-4.031382	semiconductor	-0.08014245
-4.031382	seminary	-0.08014245
-3.862907	senate	-0.08014245
-3.823728	senator	-0.08014245
-4.031382	sending	-0.08014245
-4.031382	seng	-0.08014245
-3.823728	senior	-0.08014245
-4.031382	sense	-0.08014245
-4.031382	sensitive	-0.08014245
-3.862907	sent	-0.08014245
-3.542115	sentenced	-0.1897887
-3.862907	sentences	-0.08014245
-3.660485	sentiment	-0.1555384
-4.031382	seok	-0.08014245
-4.031382	seong	-0.08014245
-3.307672	seoul	-0.1643735
-3.862907	separate	-0.08014245
-4.031382	separately	-0.08014245
-4.031382	separates	-0.08014245
-3.862907	separatist	-0.08014244
-4.031382	separatists	-0.08014245
-3.542115	september	-0.09727886
-3.823728	series	-0.08014244
-4.031382	serious	-0.08014244
-3.823728	seriously	-0.08014245
-4.031382	serve	-0.08014245
-3.823728	served	-0.282091
-3.823728	service	-0.08014245
-3.660485	services	-0.1337242
-4.031382	serving	-0.08014245
-3.307672	set	-0.1061075
-4.031382	setback	-0.08014245
-3.823728	setiadi	-0.08014245
-4.031382	settle	-0.08014245
-3.542115	settled	-0.1151193
-4.031382	seung	-0.08014245
-3.449195	seven	-0.08014245
-4.031382	seventh	-0.08014245
-3.372694	several	-0.08014245
-4.031382	severe	-0.08014245
-4.031382	shadowy	-0.08014245
-3.862907	shake	-0.1948595
-4.031382	shall	-0.08014245
-4.031382	shameful	-0.08014245
-4.031382	shandong	-0.08014245
-3.542115	shanghai	-0.1224659
-4.031382	shaquille	-0.08014245
-3.660485	share	-0.2221473
-4.031382	shareholders	-0.08014245
-3.115607	shares	-0.0959364
-4.031382	sharia	-0.08014245
-3.862907	sharp	-0.1337242
-4.031382	shatter	-0.08014245
-4.031382	shaven	-0.08014245
-3.660485	she	-0.1897887
-4.031382	shells	-0.08014245
-4.031382	shield	-0.08014245
-4.031382	shields	-0.08014245
-4.031382	shift	-0.08014245
-4.031382	shifting	-0.08014245
-3.660485	shiite	-0.08014244
-4.031382	shimbun	-0.08014245
-4.031382	shinawatra	-0.08014245
-4.031382	shine	-0.08014245
-4.031382	shinzo	-0.08014245
-3.862907	ship	-0.08014245
-4.031382	shipment	-0.08014244
-3.862907	shipments	-0.08014245
-4.031382	shipped	-0.08014245
-4.031382	shipping	-0.08014245
-4.031382	ships	-0.08014245
-4.031382	shirts	-0.08014245
-4.031382	shoot	-0.08014245
-3.862907	shooting	-0.08014245
-4.031382	short	-0.08014245
-3.660485	shot	-0.1337242
-4.031382	shots	-0.08014245
-3.372694	should	-0.1756892
-4.031382	show	-0.08014245
-3.823728	showdown	-0.08014245
-3.542115	showed	-0.08014244
-4.031382	showing	-0.08014245
-3.862907	shows	-0.08014244
-3.862907	shut	-0.08014244
-4.031382	siad	-0.08014245
-3.449195	side	-0.1531619
-4.031382	sided	-0.08014245
-4.031382	sidelines	-0.08014244
-4.031382	siderrgica	-0.08014245
-3.823728	sides	-0.1224659
-4.031382	sids	-0.08014245
-4.031382	sieg	-0.08014244
-4.031382	sign	-0.08014244
-4.031382	signalling	-0.08014244
-4.031382	signals	-0.08014245
-3.449195	signed	-0.1151193
-4.031382	significantly	-0.08014244
-4.031382	signing	-0.08014245
-3.542115	signs	-0.3190573
-4.031382	silence	-0.08014245
-4.031382	similar	-0.08014245
-4.031382	simmering	-0.08014245
-3.862907	simon	-0.08014245
-3.862907	simple	-0.08014245
-4.031382	simplistic	-0.08014245
-3.862907	simply	-0.08014245
-2.730066	since	-0.2647422
-4.031382	sincerity	-0.08014245
-4.031382	sing	-0.08014245
-3.823728	singapore	-0.08014246
-3.862907	singled	-0.1948595
-4.031382	singtel	-0.08014245
-4.031382	sister	-0.08014245
-4.031382	sit	-0.08014245
-4.031382	site	-0.08014245
-4.031382	sites	-0.08014245
-4.031382	sits	-0.08014245
-3.862907	situation	-0.08014244
-3.25113	six	-0.1572814
-4.031382	size	-0.08014244
-4.031382	skepticism	-0.08014245
-3.862907	skorea	-0.1337242
-4.031382	skorean	-0.08014244
-4.031382	slams	-0.08014245
-4.031382	slap	-0.08014245
-4.031382	slapped	-0.08014245
-4.031382	slash	-0.08014244
-4.031382	slashed	-0.08014245
-3.862907	sleep	-0.08014245
-3.862907	slightly	-0.08014245
-4.031382	slip	-0.08014245
-3.823728	slipped	-0.1531619
-4.031382	slogan	-0.08014245
-4.031382	slovakian	-0.08014245
-3.862907	slow	-0.08014245
-4.031382	slowdown	-0.08014245
-4.031382	slowed	-0.08014245
